78 256
脸 -0.0014523363 0.00094020955 0.001531827 0.0001286909 -0.0004010244 0.00024122703 -0.0004119379 0.0009819984 6.63653e-05 -0.0010148122 -0.0002103503 0.0013234643 -0.0014931924 0.0012714171 -0.0021234788 -0.0009558026 -0.00051724276 0.0017549113 -0.0009556636 -0.00022085565 0.0017960035 0.0013919087 0.0009971912 0.0013706627 -0.0020964313 0.0017669224 -0.0011150895 0.00014985062 0.00058039726 0.00022212959 0.000891152 0.0007765749 -4.178224e-05 -0.0018437954 0.0011461013 0.0020419676 -0.0011703981 0.0005722893 0.00029985848 0.0013843718 0.0013519563 0.00045491997 0.001130559 -0.0018345865 0.0019544587 -0.000397607 0.00068047934 -0.0019078999 0.001416947 -0.0009300066 0.0015647127 0.00052947976 -0.0008653826 -0.0023113834 5.21769e-06 0.00017664165 0.00091315154 0.0011843982 -0.0017324031 -0.0006260547 -0.0021436776 0.00055484375 0.0011657494 0.0008264982 0.00058991485 -0.0016127706 -0.00093833555 -0.0011254842 -0.00040701314 0.0010012363 0.0009328099 0.0009412693 -0.00013147565 -0.0012194553 0.0016161745 0.00094763614 0.0010402359 -0.00066907145 -0.0010270616 0.001189977 -0.00034901733 0.00159857 -0.0017811094 -0.0009860017 0.0001585736 -0.0016824678 0.0010535944 -0.0009071722 0.00047112588 0.00027902095 0.0012993977 -0.0017573606 0.0016031022 -5.3727832e-05 0.002331387 0.0019063728 -0.0016514268 -0.00093576056 0.00065655354 0.00081930106 0.0014794322 -0.00030788063 0.0012456189 -0.0007470985 0.0015342162 0.0015072234 -0.0010784124 0.0018343207 -0.0011993163 0.001261745 0.00028980145 0.00062226015 -0.00015971305 0.0007315189 -8.025335e-05 0.0012309197 0.0018053349 -0.0013884202 1.928582e-05 -0.0011027078 0.002306679 -0.0015842214 0.0012831718 -0.0017637959 0.00017958453 0.0019031144 0.00043645516 0.0012923793 -0.0010920339 -0.0021371653 -0.00049869996 -0.0007385371 -0.00030428768 0.00046329497 0.00010819175 0.0004910234 -5.9456615e-05 0.0020137243 0.0012367386 -0.00035620897 -0.0011144126 -0.00026035597 0.00073034933 -0.0015204444 -0.0009257293 -0.0002905964 0.0015427605 -0.00043263048 -0.00011694823 0.001991352 -0.00019735862 -0.00057635934 -0.00027639393 -7.170059e-06 0.0018381096 -0.0012284848 -2.9762412e-05 0.0014276616 -0.0008163942 0.002146688 0.0012840882 -0.0012044924 -0.0011385512 -0.001702732 0.001891634 -0.0014297564 0.0017984065 -0.00013687016 -0.0002864618 -0.0008200273 0.0017652045 7.876591e-05 -0.0018767021 -0.0010003557 -0.0004822354 -0.0011010804 0.0015642378 0.00036385635 0.0022649795 -0.00034188133 0.0005726853 0.0013931222 0.00011198695 -0.0010983768 0.00109956 -0.0007683918 -0.00010756036 -0.0020095948 1.9041596e-06 0.0018479966 -0.0007541597 -2.4044844e-05 0.0017857794 0.0006440732 -0.001252592 -0.00016319237 0.00026359345 0.0013426134 -0.0012342896 -0.0015593948 0.0020316788 0.001242255 0.0017517956 0.0013814545 0.0017999094 -0.00020295526 -0.002107334 0.00038223987 -0.0011598113 -0.00055065 -0.0015474837 -0.0013796379 4.5976358e-05 0.0012733033 -0.002214757 0.002954187 0.0008656915 0.0016353828 0.0017006691 -0.0017886951 0.0022187114 0.00015826356 0.0013301803 0.0014594997 0.0005565953 0.00025799626 -0.0007393854 -0.00060596777 -0.0020999266 0.001269375 -2.7227441e-05 -0.0004886505 -0.0017485908 -0.0007625152 -0.0009636574 -0.0018785293 -0.0018618093 -0.0010683595 -0.001433932 0.00076825917 -0.0015490829 -0.00092121423 0.00121882 0.0018497776 8.020252e-06 -0.00048728136 0.0015859886 -0.0019059592 -0.0009304307 0.00026646233 0.0014189708 -0.000385854 0.0018902159 -0.00049800467 -0.0006997581 -0.00075433886
学长 0.0012757576 0.0014277248 0.00096620334 0.0017251322 0.0010573909 -0.00093256304 0.0013014798 -0.0015210859 0.0018697404 0.0006307628 -0.00028621368 0.0017657413 -0.001290264 0.0015018419 -0.00047618686 0.0012648192 -0.0007379934 -0.0004279819 0.0006624915 -0.0002798845 -0.00062067853 -0.000303199 0.0009987525 -0.00074731 -0.0010019406 0.000803388 0.00015786891 -0.0018951085 0.0016848098 -0.00035236852 0.00022950135 0.0020325712 -0.000636874 -0.0016799095 -0.0015842707 0.0012755702 0.0013056023 0.0012518723 0.0015690011 -2.2784267e-05 -0.00018140009 0.00023043089 0.0005034166 0.0005044137 0.0008335469 0.0017220092 -0.0010402978 0.0014141939 -0.00066264544 -0.0015812214 -0.001629341 0.00034517952 0.0018355605 0.0008677154 -0.0016892029 -8.236214e-05 -0.00068388006 0.00039955505 -0.0005303136 -0.0017584396 0.0008388898 0.0011091447 0.00021416174 0.0013801532 0.0017562335 -0.00075915415 -0.0001363334 -0.0013367577 -0.0003284035 -0.00018274633 -0.00085677905 0.00048336154 -0.0014217604 0.0012386808 0.0020591558 0.0014224543 0.0015385705 -0.0017098724 -0.0004363025 0.0019606478 -0.00033023235 -0.0004399241 -0.0010317522 -0.0011405372 0.0015312851 -0.00070298475 -0.0009705191 -0.0012774388 -0.00043041777 -0.0012686391 0.0006908411 0.00039854026 0.0016065151 1.6500378e-05 0.0016347847 0.0013389954 0.00074997987 0.0012767703 -0.00061772694 -0.0012638249 0.0010777878 0.0019997845 -0.0009965264 -0.0020299149 -0.0012850846 -0.0020546555 -0.0014815741 0.00023744183 0.0018105634 -0.0012830147 0.001611556 -0.0005225417 0.001440747 -0.0002961353 0.00028402853 0.0003058325 0.0007040435 0.00041540404 0.0007835105 0.0013764794 0.0020469495 0.001733875 0.0014643682 -0.000594527 0.00040748232 0.0018663042 -0.0012766693 -2.660292e-05 -0.0019749035 -0.002128069 0.0015293745 0.0013155428 0.0017420984 0.0010118276 -0.0017146589 -0.0011887676 -0.0009704724 0.001995989 0.0010983672 0.00062206946 -0.0010127351 -0.0007903597 0.0008072475 -0.00085165404 0.00013313159 -0.0005511794 -0.00045735034 0.0013759907 -0.001431033 -0.0014130726 0.00046263653 -0.000247445 -0.00082430814 -0.0016769205 -0.001297869 0.0020571523 0.0014225682 -0.0018426618 0.0007783386 0.00042748693 -0.0012368845 0.00097180816 0.0012557694 0.0010209944 0.0006695435 -0.0013611739 0.0015261263 -0.0008917481 -0.00092972064 0.0004686847 0.0007577297 0.002033346 0.0007169062 0.0012425464 -0.0016390601 -0.0020299756 -0.00078463496 -0.00015734913 -0.0008750904 0.0018640115 0.0016695762 0.00014849358 -0.0010483111 0.0005842696 0.001594868 0.0010633315 -0.0012152784 -0.0017543241 0.00018993637 -0.0007116459 -0.00035643173 -0.0019428285 -0.0011842092 -0.00021655048 -0.001438623 0.0010754958 -0.0011840047 0.0014950527 0.0013870976 5.6062658e-05 -0.00014297612 0.0023464644 0.00014651268 0.0007520634 -0.0018989457 -0.0016470273 0.0013698959 -0.001411103 -0.00043317655 -0.0002249019 -0.0006222563 0.0007266284 -0.0010126434 0.001979 -0.000110398716 0.0017084919 -0.0015166663 0.0006057267 -0.0012880841 -0.00117221 0.0011346686 0.0005191097 -0.0009935534 -0.0017370601 -0.0019970087 -0.00026931427 0.0001872729 0.00021800335 -0.0018278137 -0.00028738103 -0.00052765646 -0.0008805749 0.0006213219 -0.0015449469 -0.0011477119 -0.00048311293 -0.0013375434 -0.0019179936 0.000965734 -0.00085969735 -0.0016200556 0.00090165116 -0.00035818273 -0.001181057 -0.0015767581 0.0013424024 -0.0015454803 -0.00121047 0.00088808575 -0.0012496072 0.00079415867 -0.001269954 0.0010155444 0.0018060359 0.0005683372 -0.0008808063
爱心 0.0016085375 0.0002551851 -0.0010952135 0.0006176528 -0.0011427565 0.0010757127 -0.0016605455 -4.6707377e-05 -0.00036800007 -8.002016e-05 0.0007386113 -0.00055264233 0.0013639348 -0.0009591739 0.00037654742 -0.0001109287 -0.0017555869 0.0010269383 -0.0001970054 -0.00014944324 0.0017920731 0.0006317556 0.00096337206 0.0015259554 0.0008465189 0.0014625702 -0.0016821818 -0.0011731792 0.00082394684 -0.0016305199 0.001482894 0.00066814234 0.0013277247 0.0010387439 -0.00019448735 -0.0016591133 -0.00036678265 0.0012233229 -0.00040920472 0.00042206078 -0.00047824706 0.00095572305 -0.00044694697 -0.0010189048 -0.001326091 -0.0012571285 -0.0011083656 -0.0018026903 0.0012032295 -0.0014785392 0.00034468502 -0.0010966687 -0.0011356216 0.00072391983 0.0013205324 0.0015988406 -0.0012833009 0.00059782696 0.0009763087 -0.001185832 0.000851729 -0.0014068704 0.00033285256 0.0019941162 0.000108789434 0.0016538753 0.0011865711 -0.0012950439 -0.0008451004 0.000886046 -0.0017491697 -0.00047812707 -0.0015110585 -0.0006739705 3.163411e-05 -0.0019422789 -3.5576155e-05 0.00182409 0.00023713452 0.001045139 -0.001220892 -0.0011977404 0.0003769476 -0.0010667521 -0.0016842176 0.0005459857 0.00016118928 -0.00093464873 -0.00026847897 0.0014714787 -4.752922e-05 0.0019311291 0.00063138624 0.0014824051 0.0016885487 0.00058630935 0.0011735423 0.0007849641 -0.0011590204 0.00012586772 -0.0014869052 0.0016901525 -0.0007475603 0.00095222367 0.0008096134 0.0010556338 0.0013258149 -0.00046920305 0.00027257414 0.0004485958 -0.0007176226 -0.00083658897 -0.0014122155 -0.0019064755 -0.0012163507 0.0018544735 0.00185231 -0.0008496712 -0.0006463112 0.0019058293 0.0017319937 0.0015319968 -0.00065806834 -0.00102054 -0.0007935533 -0.0016083278 -0.00083536666 0.00026344947 0.0002718923 -0.0007494925 0.00036502132 0.0005133535 0.00039351618 0.0007699298 -0.0016120588 -0.00085768575 -0.0008791297 -0.00079833064 0.00030089778 0.0018921852 -0.0008441954 0.0016426808 -0.000701393 0.0016658907 0.00036502205 0.0006956275 0.0017882766 0.001431245 0.0005347951 0.0012351782 0.0008538489 -0.0014032922 0.0015164699 0.000490213 0.0018634662 0.0006364371 -0.0009123311 0.0015586574 -0.00031939865 0.0016586335 0.00064633496 0.00094704883 0.00062864245 0.00012473045 0.00019664582 -0.0002850539 0.0013979222 -0.0011217074 0.00066352694 -0.0006192355 0.0012759123 -0.001909507 0.0009492055 -0.0011787856 -0.0004389714 0.00054276554 0.0014785407 -0.0014380368 8.956303e-05 -0.00082702294 -0.0011344597 -0.0019203752 -0.0017990079 0.0010407931 -0.0016174616 -0.00089667033 0.0010862023 0.0013002998 0.0010050231 0.0009796014 0.0009066168 0.0018343392 0.0018864624 -0.0011659676 0.00023737644 0.0010529031 -0.0018313458 0.00087085814 -0.0015569946 0.00024734007 0.00048357656 -0.0013540208 -0.00018809775 0.0004937257 0.0017265255 -0.0012564061 -0.00026450347 -0.0009765169 1.0677296e-05 -0.00083651015 -0.0013525346 0.00077071885 0.00172698 0.0011004428 0.00080881885 0.0004367655 0.0017773897 -0.0012324908 -0.0017518842 0.0015931017 0.00025825962 0.0010901359 -0.0017750111 -0.0009438378 0.00032095 0.000466252 0.0014771825 -0.0017336932 0.0018520086 -0.0019438771 -0.0016696979 0.0010476876 0.0017342548 0.0016213246 -0.00048364574 -0.0016122775 -0.0006717652 -0.00096709107 -0.000992823 -0.0005571219 -0.0019294218 -0.0019955507 -0.0009081675 0.0004288594 0.00063451333 0.0003988058 -0.0015208294 0.0016291874 -0.0018956678 -0.0018236809 -0.0012380421 -0.0009849207 0.001030705 -0.0017858706 -0.0004318664 -0.0003294492
钱 -0.000120933524 0.0021185856 0.0014153373 0.00038569677 -0.0016810694 0.0009733746 -0.0011406097 0.00025162098 0.001814782 4.427193e-05 -0.00031825405 0.00010889827 0.00094061706 -0.0009087056 -0.002311234 -0.0007841474 -0.0019046285 -0.0018716902 0.0016890599 0.0011047286 0.0016819652 -0.00076341204 -0.0015739271 0.0017339634 -0.00070152833 -0.0007755823 -0.001553357 -0.0014955481 -0.0008157836 0.00060744234 -0.0017577464 0.00086631335 0.0013227409 0.0008524117 -0.00046197925 -0.0015465074 -0.0016977281 -0.0018683395 0.00062090857 0.0018304555 0.0007019336 0.00091866066 -0.0014355724 0.00074959954 0.0006685071 0.0003366993 0.0012107969 -0.0007258523 -0.0011452772 -0.0010321124 0.0008495741 0.0013529209 0.0013468304 -0.0016887289 0.00087357144 0.00017976832 0.00042458065 -0.0017242642 -0.0014594292 0.0008370169 0.0010981137 0.0017381142 0.000247102 0.00085148524 0.0012939262 0.00066882285 -0.0010117427 -4.2172993e-05 0.0017580752 -0.0018443897 0.0013453609 -0.0016543658 0.00015742218 0.0014656181 0.0022208272 0.00015652855 -0.0007314154 0.00048018555 -0.001587495 -0.00060488126 0.0003111447 -8.666075e-05 0.0012580041 -0.0017981578 -0.0017780404 0.001350307 0.0010952749 -0.0013277142 -0.0009059617 0.0017770113 0.0014045187 -0.002034676 0.0008411129 0.0010641144 -4.7155845e-05 -0.0011457071 -0.0010400522 -0.0008055246 -0.00044019936 -0.0017207488 0.0016871446 0.0010104579 -0.0006413926 -0.0003654206 0.0011737956 -0.0010410589 -0.0014486719 1.4240704e-05 -0.00088262005 0.00032605024 0.0015040506 0.0012111195 0.0018697031 0.0005787815 0.00035443186 0.0017475788 -0.0004086232 -0.00035598557 0.0011547533 0.0008290027 -6.729204e-06 0.0014565965 -0.000979042 0.0013957288 0.0016812644 0.0013516684 2.5436768e-05 0.00025125817 -0.0018318356 4.982116e-05 0.0010364467 -3.4236466e-05 0.00083922315 0.0009348911 -0.0010949841 0.0018116523 -0.0017037181 -0.00018654797 -0.0013304453 0.0002836505 -0.002026426 0.0014290833 -0.00026653067 0.0013843896 0.0016354027 0.0013445282 -0.0008007333 0.0013549018 -0.00074147066 0.0019728206 -0.00073865807 0.00021496665 -0.00087022036 0.00087176694 -0.00048693165 0.00042596052 -0.00022675103 -0.0009815843 0.00010018585 -0.0006373165 0.00012376763 -0.00066148635 -0.0012619952 -5.49945e-05 -0.0009217187 0.0016123847 0.0015965925 0.0007620691 0.00048119389 0.0014643671 0.0019976152 0.0007505452 0.00053759245 -0.0014460387 -0.00093441847 0.0011891609 -0.0019443627 0.0018324623 4.7046276e-05 0.0013744821 2.7653568e-05 -0.0015813427 0.00017713103 -0.00051903893 -0.00020224022 0.0005661526 0.00041296775 0.001632308 -0.0017015515 0.00034514518 0.001704688 -0.0019325048 0.0014456045 -0.0017881477 0.0016972705 -0.00030494467 -0.0013258586 0.0010442594 0.0013582284 -0.00023215577 -0.0012765073 -0.00040996147 -0.00016606983 -0.0015765886 0.00043303298 -0.0017800778 -0.0003504355 0.0009618049 -0.0004904031 -0.0015266257 0.0007127083 -0.0005176389 -0.0016600055 0.0019844486 -0.0016397756 0.00010600321 0.00097489025 0.00014242115 -0.0011076244 2.5469682e-05 0.0012034263 -0.00020756897 -0.0005480462 0.001822116 0.0009621462 0.0002883587 0.0010011274 -0.0008397435 0.00083871896 0.0010627557 0.0004222532 -0.0009848743 -0.00079345115 -0.0009905403 0.0009997921 -0.0018744747 0.00026882224 -0.00055886677 1.5643041e-05 -0.0010614144 -0.0010741393 -0.00071365584 0.0018457797 0.0009804296 2.3534678e-05 -0.00035042857 -0.00051673624 -0.0020162184 -0.0019090017 -0.0020757068 -0.0012271395 -0.0011286833 1.0525608e-05 -0.0006920424 0.0005298276 0.0018830427
贴膜 0.0007895912 -0.0016420747 0.0017798613 -2.1803085e-05 0.0010261978 0.00055288535 -0.00094027165 0.0016850162 -9.816755e-05 0.00012792622 0.00073807314 -0.00038055558 0.00059714756 -0.00071728526 -0.0015413952 0.0006564103 0.0016228671 0.0010661196 0.0010542662 0.00022201521 0.0020895628 -0.0015313572 -4.293375e-06 0.0018428835 -0.00198062 0.0017034922 0.00035182506 -0.0015845326 0.00051633467 0.0018113102 -0.0012623762 0.0007504909 -0.0012787803 -0.00039209132 -0.0018926209 0.0005841289 -0.0018586107 0.0014254177 0.0018768188 -0.0012188035 0.00034634274 0.0003211102 0.0012315647 -0.0018599806 -0.0015910924 -0.0011729689 -0.0013980862 -0.0010243179 0.00093030295 0.0009236992 -9.838259e-06 -0.0015441094 0.0014733541 -0.001549872 -0.00016526319 0.00062644674 0.000690459 0.00083081436 0.0009103207 -1.7917013e-05 -0.00014306919 0.0016624441 0.0013705816 0.0010951791 0.001756944 -0.00051263685 0.0012452992 0.00020183972 0.00046394707 -0.0019426158 -3.4419452e-05 -0.0016262254 -0.0020997822 0.0005459165 0.00052550406 0.00015748003 -0.0019412361 0.0013718769 0.00040835582 -0.0012768053 -0.0015297154 -0.0007149903 0.00015995289 0.0018428835 0.00090521 -0.0009492637 -0.00033830196 0.000193595 -8.3676954e-05 -7.993142e-05 -0.0007041106 2.765549e-05 0.0011662794 -0.00024510655 -0.00021452746 0.0015385412 0.0011054439 -0.0014970866 0.00074398384 -0.0019775482 -0.0019349332 -0.0010817412 -0.0011959 0.00091904245 -0.0005277857 -0.0017947966 0.000584308 0.001529434 0.0007856158 -0.0019995028 0.00043972666 -0.00073317107 -0.0009084388 -0.0011014104 0.0012147535 -0.0002025358 0.0016052274 -0.00014529914 -0.00015455054 0.00017287355 0.00017819536 -0.00022104385 -0.0020259733 0.0006512058 0.00040768718 -0.0017927309 -0.0002067726 -0.0006591436 0.00037728387 -0.0006605629 -0.0011308676 -0.00051729503 -0.0005521332 -0.0009785095 -0.0015435499 -0.0018621545 0.0009204698 -0.0015861852 0.0015725098 0.0013202771 -0.0017531222 -0.00035141085 0.0006105797 0.00042579346 0.0015305035 0.0012092459 -0.00049631484 0.0005550733 -0.0012132773 0.0014045747 0.0004128324 -0.0006159433 0.00012436607 -0.0015761274 -0.00028220384 0.00037135193 0.0006951553 -0.00016474436 0.00083700626 2.6872493e-05 0.0010581476 -0.0015480547 0.0013072056 -0.0013437252 0.0012570691 -0.0009379474 -0.0008584343 0.0012539516 0.0004478321 0.0005030353 0.001809855 0.00068075425 -0.0017085733 0.0005245874 0.0014905124 0.00149785 -0.002088905 0.0006750284 0.00058067474 -0.00015531106 0.0011197078 -0.0016926847 -8.095008e-05 -0.0011839266 0.00090266124 0.0009010628 -0.0014118619 0.0004605775 -0.0014319614 -0.0006851474 0.0012627528 -0.0006841315 0.00080131885 0.0017060349 -0.00070028997 0.0016514014 -0.0009865023 0.0018333603 0.0010794994 0.00039310663 0.0009428578 0.0011829119 0.00013438483 0.0018371929 0.00038875654 0.00026377113 -0.00076612167 0.0009942723 -0.0013769864 0.000624887 0.00044129312 -0.001188266 0.000520385 0.0001599147 0.0009865111 0.0011414555 -0.00038826972 -0.00085510174 0.00015876674 -0.0014754338 0.00068382546 -0.0013451098 -0.0009894427 -0.00023201662 -0.00075357856 0.0013019642 0.00020166083 -0.0018331815 -0.0018029138 0.0005698951 0.00059226266 -0.00075850624 -0.0015137702 0.0016266777 2.5993271e-05 0.001366758 0.001684687 -0.0013262978 0.000716745 -0.0017192133 -0.0016317292 9.51069e-05 0.0007557164 -0.0018412375 0.0013904248 -0.0010373961 0.0005551106 -0.0009023623 -0.00018730959 -0.00093289785 0.0017953705 0.000711453 -0.0005980802 -0.00024559893 -0.0010834624 -0.0009639106
S4 -0.0015748965 0.0019930433 -0.00046075205 -0.0017457213 -0.0016031999 0.0015789818 0.00057741726 -0.0016318649 0.0012228822 -0.0012560424 0.000593185 -0.0015149807 -0.0003067377 0.0014107635 -0.0014155064 -0.0013829398 -0.0013735293 -0.00074413186 -0.0020391983 0.000918202 -0.0015624244 0.0020880695 -0.0004591249 -0.00019024397 -0.0012141517 -0.00035520404 -0.0011194312 -0.0017195905 -0.0009892888 0.00014616182 -0.0012374007 -0.00038889368 -0.0010591317 0.00076970883 0.00061580556 -2.2929053e-05 0.0010997572 -0.0019433548 -0.0013931147 -0.0001349357 -0.0004607068 -0.00035013814 0.0010074335 -0.0013581092 0.0013548159 0.00012635565 0.0015616411 0.0011102504 0.0015627893 -0.000113771064 0.0013714749 0.001152032 -0.00056851987 0.001286941 0.0013522865 1.6230933e-05 -0.00079472223 0.00069719367 -0.0012826433 -0.0007769714 0.000988902 -0.0015451515 -0.000496145 0.0005698978 -0.00078348443 3.2473017e-05 -2.2770271e-05 -0.00081034395 -0.0016542772 -0.0012201895 0.0005421048 0.0019853176 -0.0005947147 0.0016191237 -0.0012792925 0.0002212777 0.00020069056 0.0010205952 0.0017221142 0.0008613449 0.0007847084 0.0014097193 -7.7825636e-05 -0.00012415333 -0.00080848724 -0.001376406 0.00021840676 0.0014652066 -0.0013909955 0.0018128802 -0.0016781164 -0.0018152957 0.0003822716 -0.0010578015 0.0017609934 0.00023827536 0.0012597108 0.0017676366 -0.0017428045 -0.0011383687 0.00036948785 0.00026623957 -0.00082461507 -0.0002471749 -0.0010976245 0.0011433287 -0.0018382245 0.000977892 -0.0016955531 -0.0006551553 -0.0018123736 -0.0013282911 0.0015852853 -0.0012717344 -0.0017098469 0.00037943278 -0.0016516706 0.0019177089 0.00083213806 -0.0004317786 0.0012992666 0.00017969505 -0.0017318309 -0.0020084905 0.0018126229 -0.00025476143 0.0010039827 -0.0013857839 -0.0021711234 -0.0012127113 -0.0003153683 0.0014404941 0.0011034367 0.0002888689 -0.0008873583 -0.00063379045 -0.0015793539 -5.561404e-05 -0.00019398073 -0.0014187144 0.0012685279 -0.0015861472 0.0009976119 -0.00075175666 0.0016430728 0.001135741 -0.0015873747 -0.00040650793 -0.0020987478 -0.00073678914 0.0017587362 4.0629922e-05 -0.000786201 0.0007761695 0.0005727203 0.0001898095 -0.0006433101 -0.0015728448 -0.0002493685 -0.0011140662 -0.00025674384 0.001007222 0.00037338425 0.0006374026 -0.0014069424 -0.0019545518 -0.0008773033 -0.0014307487 0.000490862 -0.0011081109 -0.0005994033 0.0018518651 9.5865624e-05 0.0015353689 0.00086941745 -0.00030155267 0.0009372023 -0.0014428656 -0.0011613427 -0.0011947831 0.0001441686 0.0016736147 -0.00080311205 0.0006064188 0.0021871864 0.0013378047 0.0013446481 -0.0015297789 -0.00080692134 0.0007150141 -7.130819e-05 0.0011954248 0.00021844616 0.0009909181 0.0009433222 0.0018103032 0.0010733652 0.00039987423 0.00010488939 0.0006420178 0.00067764806 0.00034794176 0.0002038738 0.00019707365 0.0011988075 0.0016307813 -5.604001e-05 -0.0012874887 0.00038652742 0.00043886853 0.0005135231 0.00040547107 -0.0011050346 -0.00044539542 -0.0022094303 0.00074487133 -0.00021537965 0.0019493111 -0.001145726 -0.0018187353 0.0011343954 0.00019929363 0.0017346216 0.0011427667 0.00096094306 0.0006335075 0.001269207 0.00061354815 0.001308464 0.00026318734 0.0015262268 -0.00095256517 7.8273064e-05 0.0008100946 -0.0013210699 -0.0011200423 -0.00081876625 -0.0015032425 0.00088480726 -0.0019678099 -0.0007579997 0.0011593865 0.0015163061 -0.001816924 -0.0014542632 -0.00092719705 5.311298e-05 -0.0016635531 -0.0013247504 -0.0022878342 0.0021448226 -0.00072165404 0.00030932008 0.0018954718 -0.0018529161 0.0007364335
小刚 0.00034058865 0.0019804612 0.0014439194 -0.0006449813 -0.0006449743 -0.0014704935 0.0015244081 0.00010830564 -0.0013130148 -0.0017237666 -0.00095340377 -0.0019747717 4.359604e-05 -0.0014212031 -0.0025435349 -0.0013141471 -0.0013531261 -0.0014243975 0.00035683328 0.0018207383 -0.0009741988 0.00044447882 0.0009942027 0.0006464033 -0.0022015036 -0.0012837247 -0.0009601518 0.0010927679 0.00010651647 0.0006359804 0.00092560437 -0.00071468676 0.00020544433 0.0010274813 -0.0016545507 0.001961274 -0.0019832521 0.0019898976 -0.00029293867 0.0013331161 -0.0017465628 -0.00065496337 -0.0021465519 -0.00069138367 0.0007401501 0.0004052513 0.0013256039 0.0010494629 -0.00045041845 -0.0007490617 -0.00073606236 -0.0012070123 0.00084164226 -0.00052719057 -0.0017764139 -0.0012223913 -0.00011112729 0.000756095 -0.0013170296 -0.0013839733 -0.0017671204 0.0018754932 -0.0009769734 0.0004095344 0.00021515833 6.1088314e-05 -0.00025378374 -0.0010796353 -0.00091382844 -0.0020439287 -0.0020763231 0.00088879315 0.0013592815 -0.0011169701 -0.0010820266 -0.0015586739 0.0016153854 -2.7184098e-05 -0.00086125714 -0.00062364776 -0.00096441974 0.00022217081 -0.00049999193 0.0011029968 -0.0016702755 0.001269987 0.0011874156 -0.0010380414 0.0011736046 -0.0018161841 -0.00039515703 -0.0010467966 -0.001734139 0.0006392994 0.0009059868 -0.0013103109 0.0018286781 0.0016823781 -0.000613802 9.258459e-05 -0.00041852792 -0.0004998798 0.00073166937 0.0012329107 0.0017886112 -0.0012291775 -0.0006501137 -0.0004995669 -0.0016962306 -0.00087556365 -0.0012910698 -0.0015585313 -0.00010882543 -0.0014173663 -0.00026539192 0.0007477828 -0.00077029003 0.0014610868 -3.7717997e-05 -0.00013945843 0.0018967439 -0.0004081656 0.0009792232 -0.0013018152 -0.0019718714 0.0018482513 0.0014819041 0.00094418525 -0.0017711589 -0.0023396465 -0.0007098075 -0.0016249795 -3.866294e-05 -0.0006209985 0.0012134378 -0.0008511634 0.0005611876 0.0017490187 -0.00027762516 -0.0011669997 -0.0011569399 -0.0013131056 0.00032003826 -8.161174e-05 -0.00072793313 0.00011606117 0.0015029882 -0.0013689213 0.0007524287 -1.6388178e-05 -0.0014648378 1.5768012e-05 0.00135975 -0.0010057804 -0.00052931526 0.0019055246 0.00029766365 0.0012613968 -0.0014949276 0.002077921 0.00064920995 -0.0018416393 0.0011959252 0.0011169879 -0.00089508103 -0.0011717264 0.0009737937 0.0018855655 0.000987328 -0.0018956217 -0.001079246 -0.00036917225 0.00027916642 1.4662355e-06 0.0017631609 0.00039274737 0.0004234331 0.0008643707 0.00080864615 0.0014353882 -0.0007738677 -0.00042852925 -0.0006466161 -0.0011377868 4.4915305e-05 0.0017516633 0.0005798252 0.0005739245 -0.00033961632 0.0015024132 -0.00076025515 0.00073470105 0.0015690068 -0.00117387 0.0009907415 0.00033123425 0.00067178224 -0.00033109394 0.0019186207 -0.0004889558 -0.0006143578 0.0020629328 0.00046998044 0.0013034954 -0.0011492395 0.0009176156 0.0015024191 0.0015789366 -0.0008729004 -0.0016461704 -0.0003828139 -0.0011266193 -0.0008443627 0.00041481317 -0.0014258081 0.0020770638 -0.001818217 0.00146786 0.0017412726 0.0010943158 0.0012173485 -0.00011600558 -0.00086955 0.0014533303 -0.0015830133 0.0015016602 0.0008220813 -0.0015527743 -0.0007953843 -0.00035701835 -0.0019282184 -0.00081896526 -0.00060801214 0.0006736172 -0.00044700468 -0.0021677322 -0.0012991285 0.00036804436 0.0018485502 -0.0015017973 0.0011555863 -0.0016598532 -0.00019098188 0.0019705507 0.0018724196 -0.0007378522 0.00034261172 -0.0014380737 -0.0013163955 -0.0023860044 0.0006472791 0.0010365767 -0.0016470606 0.0015398358 -0.0010376138 0.0010499705
牙 -0.0014433746 -0.0005775489 -0.00090119464 0.00021247716 0.0018449215 -0.001770702 0.0006473089 -0.00089027535 0.0012096589 -0.0001597033 -0.0012251547 0.00028676714 0.0009485714 0.0016662914 -0.0014729232 0.00023179708 0.0016985144 0.0011396471 -0.00084869005 -0.0009777759 -0.00094543095 -0.001428104 0.0001581704 0.0009625523 -0.0018698627 -0.0017261694 -0.00017065366 0.00028368837 0.0009503411 0.0010570082 -2.3032431e-05 -0.0009577638 -0.0012258198 0.0014368288 0.0011153464 -0.0003868389 0.00068206456 0.001592438 -0.0017919523 0.00029527952 -0.0017392726 -0.0014878754 -0.0011555515 0.00020163711 0.00036967944 0.0007446348 0.0004750609 -0.002034139 0.001588754 0.0014988655 0.0006680598 0.0013748914 0.0018984701 -0.0012897089 0.0014273529 -0.0005873745 0.0018500204 -0.00042545766 0.0009415843 -0.00093793054 0.001768616 0.0007159426 0.0012064942 0.0011342935 9.632642e-05 0.0010203627 -0.0011520238 -0.0011630739 0.0004174334 -0.0016769153 0.00039304572 -0.0015245345 -0.00022023199 -0.0006908814 0.0022525538 -8.8503424e-05 -0.0015883669 -0.0014879104 0.00022136397 0.0004611458 0.002116601 0.00020974503 -0.00064687873 0.0010095165 0.00057080877 -0.0014554237 0.001366104 0.0017851815 -0.00036675332 0.001829641 0.0010861903 0.0010803033 0.0006775723 2.4454772e-05 0.0018823971 0.00086838036 -6.2392e-05 -0.0016702225 0.0014398713 0.000572273 -0.0020162442 0.0016462929 -0.0017641878 0.0012382303 -0.0017955301 -0.000739426 -7.822829e-05 -0.0011274477 0.0015436648 -0.00090986793 0.0016317783 0.0006735659 0.0010107823 -0.0018228199 0.0006319074 -0.0010643771 0.0017144962 -0.0011482488 0.001014512 0.0014243574 0.0008264233 -0.0006226694 0.0014252218 -0.0017353958 0.001085119 0.0005313839 -0.0018339609 -0.0011254983 -0.0017918004 0.0010970562 -0.0010471183 -0.0019138259 0.0015648347 -0.00062490604 -0.0011694893 -0.0018853764 -0.0021012072 0.0017601232 0.0012823078 -0.0010873803 0.00074130436 -0.001082838 0.00014892018 0.001492545 0.0016741887 -0.0015010394 0.0013064666 0.0006718586 0.0014507069 -0.001138562 -6.7849316e-05 0.00027537768 0.00011818712 0.00123814 -0.0017976933 0.00028869748 -0.00068219774 -0.0011544417 0.0014319877 0.0016398898 -0.0018218445 -0.00050256774 -8.482914e-05 0.0019882368 -0.0007689289 -0.0021442256 -0.001026257 0.000941719 -0.00091294834 -0.0020781145 -0.0013948414 -0.0015130113 -0.0014825809 0.0018029802 0.0002858213 -0.0016543507 -0.0014102118 0.00020729787 0.0017857361 -0.00023539658 -0.0010968591 -0.0006415359 -0.0010230236 -0.00027993493 0.00049041293 -0.0015679842 0.001948109 -0.0013104082 -0.0007505807 0.0019356675 0.0014680891 0.00045763003 0.00039726918 -0.0011392281 -0.00021721906 0.00022777809 -0.00036726802 -0.00025150855 -0.0007598438 -0.0019758767 0.0016251416 -0.00013087147 -0.00085786905 0.002150096 -0.0006784852 -7.574736e-05 -0.0017955223 -0.0011281432 0.00019954126 0.0013314948 0.0011198601 0.0017743297 -0.00015877579 0.0016516212 0.00068417774 -0.0008851212 -0.0014636146 -0.0001868149 0.0020501504 0.0013802393 0.0017063536 -0.001771649 -0.0013771976 2.333954e-05 -0.0018195183 0.0018302872 0.0020824987 -0.001446268 -0.0014292515 0.0011220016 -0.0021642712 -0.0005502071 -0.00047711394 0.00216603 0.0016363653 0.0009657621 0.0002899006 0.0007945283 -3.5529279e-06 0.0017559808 -0.0013068765 -0.0012951561 0.0003151465 0.0014504968 -0.0002499159 0.0011115326 0.0012649276 0.001409965 -0.00075002946 0.0012229782 0.0019217827 0.0004561084 -0.00040108123 -0.0013303983 -0.0012755848 -0.0013516435
车 0.0002288724 -0.0006338953 0.0017572688 0.0016453806 0.0006620268 0.0010114211 -0.00094316364 0.0009135043 0.0010027041 0.0014639868 0.0008293662 -0.0001628697 0.00077967497 -0.00032618202 -6.774477e-05 -0.0006661243 -0.0009713989 -0.0007868963 -0.0016624962 0.0015385716 -0.00088625436 0.0008735522 -0.0008284073 0.0015213424 -0.0014936979 -0.00082799105 0.0013005763 -0.00043932884 -0.000914936 -0.0009682833 0.00048001835 -0.0010933162 -0.0017266414 0.0008068373 -0.0015963305 -0.00092506316 -0.0017615996 -0.001131379 0.0010161519 0.0015368827 0.00092159415 0.0012325065 0.0008802415 -0.0012821327 0.00027706343 0.0015707422 0.0011200409 -0.00052982 0.00021342683 -0.0013088915 -0.0012798079 0.0014562699 -0.0014439445 -0.0015025919 0.0004223128 -0.0012146254 -0.0009882642 -0.0021056768 3.3695028e-07 -0.0016514799 0.0011222278 0.0011825989 -0.0017397355 -0.0016438127 -0.0005110962 -0.0012293573 -0.00061388855 -0.0021678936 -0.00072790444 -0.00094051065 -0.0012434124 -0.00011674691 0.0016843831 -0.0009361925 0.0007417662 -0.00064885506 0.0005793614 -0.001550578 -0.0009674867 -0.0006511494 0.0007675661 -0.0014312194 0.0018654446 0.0011551871 0.001803492 0.0005528531 0.0008472018 0.00022170751 0.0013688719 0.0015521409 0.00028853473 -0.000850911 0.0016913044 -0.0011164806 0.0015854011 -0.00025372324 -0.001998897 0.00035657897 0.0005720699 0.00087428314 -0.0018787193 -0.000468658 -0.0017530004 -0.00093806017 -0.0010809744 0.00061160646 -0.00019168541 0.0013840138 -0.00024877524 -0.00031204845 0.0016873388 -0.0008255282 0.0008626392 -0.0002608982 -0.00017156627 -0.0018228277 0.0019813573 0.0012237405 -0.000740179 -0.001949442 -6.860385e-05 0.0011521851 -0.00012418533 -0.00029917853 -0.0011508381 0.00022262918 -0.0016337011 -0.0015056902 -0.0018528297 -0.002187796 0.00082816277 -0.0011770282 0.0011268995 -0.0003482429 0.0011983537 0.00064292585 -0.0015107502 0.00036141963 0.001326519 -0.0021060521 -0.001135909 -0.00017795728 0.0015460408 0.0009587288 0.00085122767 0.0010419614 -0.00042419025 0.00080255035 -0.00080982887 -0.00058790855 0.00047305782 4.238225e-05 -0.00048652658 0.00015744595 -0.00043822252 0.0013411973 0.0005061128 -0.00033740918 5.5504606e-05 0.00196533 0.001429222 0.0007677954 0.0011594994 0.00017532687 0.00052916555 0.0001382385 0.001578213 0.0015170396 0.0003853453 0.00071825937 0.0016480868 -0.00051621493 0.00060155574 0.0005650407 -0.0007917481 -0.0009789135 -0.0019784668 0.0009379832 0.00019396059 0.0009441849 -0.0004385988 -0.0018791751 0.00016873884 -0.0014759774 0.0014020238 0.0003685824 0.00058476 0.00095751643 0.0016516338 0.00049573433 -0.001778696 0.00041057097 0.0005296048 0.00061760464 0.0015288972 -0.0010448161 0.00013406575 0.0020558545 0.0015313292 -0.0018447014 0.0007323645 -0.0010571228 -0.0008319003 0.0016712033 -0.00044326804 -0.0017387499 0.0017218731 -0.001117537 -0.0005490817 -0.0019001239 0.0013500039 -0.0021103502 0.00094580866 0.0010308633 -0.001287824 0.0011138098 -0.0013167203 0.00095013867 0.00036746555 0.00025485858 -0.0010910325 -0.0018816447 0.00028494344 -0.00046842065 -0.0016611926 0.0019541897 -0.000961702 0.00165804 0.0015986643 -0.0008260919 0.0007115329 -0.0017914742 0.0018325697 0.0017347259 -0.00084893504 -4.892636e-05 6.884782e-05 -0.001390156 -0.00072128436 0.0015321518 -0.0010859385 0.00044567627 0.0006171404 -0.0011554011 0.0009927249 -0.00085273077 -0.0016443938 0.0017486761 -0.0013514223 -0.0012005905 0.0006813904 0.001745998 0.00016193771 0.0019523256 0.00015809534 -4.0874118e-05
M2 0.00048153684 -0.00029043687 0.0003864162 0.0013553182 0.0009207543 0.00141823 0.0011689983 -0.00086837943 0.001485649 0.0017754656 8.70485e-05 -0.0014541905 -0.0013812304 -0.0019622385 -0.0030360224 -0.0024027296 0.0015959752 0.000423681 -0.0017825866 -0.00017700308 0.0007906137 0.0017633459 -0.00025291735 0.00036346065 -0.0017167374 0.0014874876 0.00080261333 -0.00039243864 0.0010597708 0.0007487884 -0.00013841603 0.00047313143 0.0010495469 3.5262376e-05 -0.0006749555 -0.00069639884 0.0011467487 -0.0002507706 -0.00088665285 -0.0010984706 -0.0019734506 0.0016410411 -0.002453158 -0.0014769024 0.0017799181 -0.00024745718 -0.0020196855 0.00034786476 0.0016666526 0.0007827132 -0.00169143 -0.00032791612 0.0007555514 -0.0009496477 0.00093828654 -0.0021031597 0.00011480419 -0.0014169554 5.4714907e-05 -5.487806e-05 -0.0004659783 0.0012142097 0.0015974214 -0.0008886423 -5.368036e-05 -0.000989334 -0.00092141796 0.00028232424 -0.00072702696 -0.0020049792 -0.0017083781 0.001596237 -0.0019179931 -0.00083636027 0.0016068191 -0.001874787 0.0015424555 0.00073916494 -0.0013716882 -0.00042000544 0.00067583774 0.0008760405 0.0007843104 -0.00073399435 -0.0013804609 -0.00023642997 0.0005845887 0.0008658212 0.0015158824 0.0007542039 0.00022659956 -0.0012319456 -0.0001934168 0.0017409464 0.00160444 0.0017911543 0.0010080121 0.0014444727 0.001513207 0.0009842977 -9.6321026e-05 0.0018681828 -0.0009919513 -0.00034940266 0.0013494376 0.0007280434 0.0001735466 0.0014092063 -0.00011058076 -0.002033726 0.001542938 0.001062695 0.0014831108 -0.0014953109 -0.00040757091 -0.00206195 -0.0012880891 0.0010460028 -0.0016231203 0.0011606185 0.0024205607 0.0020889628 -0.0019784733 0.0015386035 -0.001093134 0.0015242363 0.0004515244 -0.00078418804 0.0008433978 8.184208e-05 0.00100167 -0.0023118753 -0.00016907687 0.0006061431 -0.00074995204 -0.00030502153 0.0010785887 0.0008197634 0.0022979372 -0.00095747237 0.0007407448 -0.0017446222 -0.0013855778 -0.0017623758 0.0019479129 -0.00022670257 0.00035439586 0.0011935148 -0.0011716979 -0.00036703126 0.00082437386 -0.000890971 -0.0022703726 -0.001944195 0.0018565375 -0.0005376905 0.0010750595 0.0007412697 -0.0019012258 0.0025676638 0.0005356542 5.32085e-05 0.0009432387 0.00040830346 -0.0015232336 -0.00019651465 -0.00025956184 0.0017641442 -0.0015518955 0.00023823186 0.0009839488 -0.0013914793 -0.0019554296 -0.0005786205 0.0001704263 -0.0015633883 -0.00054504984 0.0007417108 0.0018540707 0.00021701814 -8.6516775e-05 -0.00081455323 -0.0004989328 -0.0015262503 0.0013624809 0.0011984779 0.0014109629 0.00046236985 -0.0009363626 -0.0013014141 -0.000750206 -0.00050202553 0.00022106153 -0.0011234959 -0.0003065262 -0.0016195205 -0.00097510044 -0.0010433922 -0.00015638072 -0.0014496719 0.000549258 0.00036216475 0.0021343415 -0.00023715298 0.0015375637 0.0006613088 -0.0015450786 -0.0009238764 -3.4918747e-05 0.0014096653 0.00080949813 -0.0018664739 -3.6455796e-05 0.0010840733 -0.0028260986 0.0008064618 -0.0021147297 0.00015923912 -0.0013715723 -0.00065288326 -0.00010549095 -0.0021739625 0.0010512412 -0.001186586 -0.0013321964 -0.000637357 0.002293699 0.0015346041 0.00054526405 0.00048187593 -0.0021698375 -0.0019003116 0.0015191021 0.00040369158 -0.00090066873 0.0013029369 0.0010091783 0.0013500621 0.0018650511 0.0011261792 0.000492003 0.0015683908 -0.0011296324 0.0015931177 0.00065467786 -0.00040487002 0.0007058376 0.00044887952 0.0002203471 -0.0026929115 -0.0007650103 0.0015526542 0.0011388237 0.0023513369 -0.0004335899 0.0019696308
宝马 5.8243397e-05 -0.00043707993 -0.0011386909 -0.0006037391 -0.0015205018 0.0011889997 -2.1586115e-05 -0.000557252 -0.0018725812 0.0010364417 0.001458211 -0.00092405075 -0.00026636277 0.0014913377 -0.0014634744 -0.0017197231 0.00065042067 0.0006885952 0.00034638896 -0.001816262 0.0008112296 0.00043090046 -0.0011608168 0.0009083062 -0.0014367967 0.0010460665 0.00079512986 -0.0009051118 -0.001321874 0.0011597583 0.0012048642 0.0003569736 -0.0010164757 -0.00016993741 0.0010439926 0.001621823 0.0007656314 0.0011529011 -0.0005188982 0.0016573534 -0.0012024341 4.928657e-05 0.0016048866 0.0013745513 0.0015254666 -0.0014951822 0.0015818415 0.0016945362 0.00045292347 0.0018920469 -0.0012099453 -0.0008454352 0.0007399997 0.001270998 -0.0009866065 -0.001266763 7.580676e-05 1.0186823e-06 0.0012357957 0.0013928466 -0.00064716174 -0.0015773645 7.636512e-05 0.0011714551 0.00096186297 -0.0013799294 0.0015589655 -0.0007593311 0.0010425119 -0.0016398893 -0.0016503219 0.000772037 -0.00023701246 -0.0020562275 0.0014619157 0.00067016453 0.0016452824 -0.0014875623 0.0013877117 -0.001248604 -0.00074297225 0.002042568 0.00023268003 -0.001582921 0.00077530486 0.0015258866 -0.00064458617 0.0006706323 0.0011604562 0.00020190654 0.00031319004 -0.0013937654 -0.001330674 0.0007371442 0.0002122638 -0.0017718686 -0.00041007696 -0.0018175147 -0.0012881333 -0.002168873 -0.0012360142 0.0021292747 0.00068593567 -0.0012674419 0.00011597782 0.00064261246 -0.0005922481 0.0013923737 -0.00029362467 -0.0018057688 4.5521892e-06 0.0007531585 -0.0012130557 -0.0017020166 0.0019826677 -0.0009139701 0.00060057 0.0014492561 -0.001138369 -0.0015865881 0.0011895465 -0.0013049059 0.00016156911 -0.0010719291 0.00048467584 0.0012859759 0.0003649543 -0.000106243366 0.0010553525 -0.001792766 0.00085230416 -0.0012920543 -0.0010243524 -0.0016915875 0.00041218416 0.0014172915 -0.001643371 -0.00031528826 -0.0012288081 -0.0001206119 -0.0017680367 6.4063875e-05 -0.001507678 -0.00089106144 -0.00075292727 -0.0012111932 0.00014635746 0.0019226087 -0.0010262753 0.0016730332 -0.00070716697 0.001836983 -0.0015783393 0.0017954148 0.00050690334 -0.0017496526 -0.0020424882 0.0010084908 -0.00036319354 0.00034448798 0.0012840056 0.00025223638 -0.0016985874 0.0008900729 0.0012252057 0.0005723063 -0.0010419204 -3.1071675e-05 -0.00069873314 -0.0020800622 0.0012846969 -0.00021815964 0.0009821106 0.0016886173 0.0019219236 0.0014204948 -8.074822e-05 0.0013120888 0.000516765 -2.791471e-05 0.001627052 -0.0007338343 -0.0018985402 -0.00045936785 -0.000496259 0.00086041924 -0.00010643392 -0.0020447515 0.00069913577 -0.0016026223 -0.0019511323 0.00013915812 -0.001807658 0.0009914569 -0.0005731919 -0.001061427 0.0016538125 -0.0005520757 -0.0013333278 -0.0018120495 -7.098341e-05 0.0012240256 0.0010585119 0.00040431545 -0.00078905985 8.077676e-05 0.0012201701 -0.0016371243 0.00013329445 -0.0015855498 -0.0007938354 -0.0012085026 0.0021014826 -0.0012288957 -0.00086361787 0.0023175252 0.0010843822 0.0012689404 -0.0006129126 0.001247671 0.001052948 0.0001434945 0.0012257511 -0.0018355786 0.0005966863 -0.00180452 0.0020705806 0.0017208718 -0.0011973862 -0.0012077283 -0.0018570642 -0.00053129694 -0.000749869 0.0014932391 -0.0015157643 -0.0017464823 0.0014869389 0.00070980896 0.0017790732 0.0013734726 0.00013535496 0.00070119585 0.0014855933 0.0018217753 6.252125e-05 -0.00093983934 -0.001435304 -0.0010805639 -0.00043846015 0.0006483963 -0.00069327897 -0.0016700396 -0.0011958499 0.00068682095 -0.0003969103 -0.0014512957
店 -0.0011262955 -0.0006398412 -0.0006655532 -0.0013291014 0.0014123954 -0.00024196306 -0.001639194 -9.4328374e-05 -0.0014710204 0.00031039517 0.0017533377 -0.0015612583 -0.0015544815 -0.00020710222 -0.002086972 -0.0019549553 0.0006178256 0.00025732562 -0.00054467976 -0.0010325379 -0.0012088931 -0.0014402337 -0.0014763672 -8.040082e-06 -0.0005354935 -8.36124e-06 -0.0009532877 0.00031013196 0.0008150993 -0.0016230727 0.0013876578 0.0004407145 -0.0019901344 -0.000908929 -0.0005983642 0.0009502096 -0.00017928568 -0.0009098464 -0.0012042279 0.00028178655 -0.001324217 -3.5701458e-05 -0.0012489989 -0.0013233947 -0.0018820935 -0.0005530248 -0.0015305559 0.0010307727 0.0009143467 -0.00028372376 0.0009126183 -0.0011148141 0.00052078586 0.00075988757 -0.0015283636 0.0018516608 -0.0019458317 -0.0014991548 -9.721072e-05 -0.00057862356 -0.0008149629 0.0020759443 -0.0017985351 0.0017653131 0.0017626174 0.00060124934 0.0008788976 0.0012461249 -0.0018424541 0.000858952 -0.0013666687 0.00051025616 -0.0014704444 -0.00033898823 -0.0006198833 0.0013865886 -0.0006170454 -0.0011083881 -0.001186704 0.001979606 -0.001229879 -0.0003765139 -0.0011802383 -0.00034108417 5.614044e-05 0.0005182913 0.0018241588 -8.495208e-05 0.0006169217 -0.0014426649 0.00040207175 0.00011294329 0.0009519586 -0.0006996647 0.0010320417 0.0015094139 0.0008304996 0.0015321396 0.0018322194 -0.001011567 -2.622879e-05 -0.00083994435 0.0017456275 -0.0017790399 -0.0011425435 -0.00039782733 -0.0006974511 -0.00013787876 -0.0013640405 8.45995e-05 0.0012803533 0.0008168633 0.0006436296 -0.0020622995 0.0007613875 0.0007857674 0.0011988468 -0.0011648904 0.00045448658 0.00041116413 0.0005887827 -0.0017462235 -0.00010177374 -0.00071710726 0.0012500215 0.0014239656 -0.0014888197 -0.0010792377 0.001643894 9.490891e-05 0.0013699365 -0.0018954341 -0.00077196513 0.0014014686 0.000530326 -0.0016415396 0.0006031429 -0.0016490553 0.0013671216 -0.00038484737 -0.00015455639 -0.00037531494 0.0015909933 -0.00059990294 -0.00049347145 0.0012033429 0.00071869546 0.0015036485 0.0014926187 0.00087335875 0.00088788284 0.0016761586 -0.0013396868 0.0006567726 0.00029814534 0.00046880968 -0.0013802592 -0.0005262696 -0.0010895547 -0.0011364442 -0.0013660484 -0.0013965328 0.00086490606 0.00021721919 -0.00068269117 -0.0020449578 0.00026435615 -0.0011269033 -0.0013714946 -0.0016271466 0.000706502 0.0008177732 -0.00059913937 -0.0016694514 -0.0016487273 -0.0016357494 -0.00031812539 2.0855028e-05 0.00011903134 0.0019098048 0.00011718913 -0.0014156154 -0.000114838396 0.0002146453 0.0012786288 4.468806e-05 -0.0010530953 -0.00089067465 0.001021292 -0.00043004297 -0.00024451964 -0.0010166711 -0.0014671795 0.0015690831 -0.00039996105 0.0017320749 -0.0013777688 -0.0007460907 -0.0016296933 -0.0005050157 0.0005538912 0.0018334744 0.0012309735 -0.00033376485 -0.00095011515 0.000425707 -0.0018378643 -0.0016074745 -0.0012791712 0.00046606152 0.0015734255 0.0015636927 0.00038133227 -0.0017887908 -1.1708688e-05 -0.00010817624 -7.589183e-05 0.00083867257 0.0006579006 -0.0006648853 -0.0010948215 -0.0013725958 0.00031881162 -0.0006023298 0.00057934056 -0.0012480121 0.00048548705 -0.0016905593 0.0014641009 -0.00019128696 -0.0007511021 0.0017643303 0.0017997095 0.00077280187 -0.0013851937 -0.0017785757 -0.0013241835 -0.0010114218 -0.0004482676 0.00084609323 -0.0011196001 -0.00089699664 -0.0017366288 0.0013736748 -0.0004257981 0.0016622478 0.0015303514 -0.0013900956 0.0003875109 -0.0014088908 0.00029237577 -0.00019647257 -0.00038656013 -0.0005816042 -0.0007427614 -0.00081578613
s4 0.0019553334 0.00017408897 0.0010273907 -0.0007361544 0.0012920157 0.00050769444 0.0014195874 -0.0004890231 -0.0014126403 0.001660676 -0.00048500526 0.0012607201 -0.0002340019 -0.0019408577 -0.002755399 -0.0011531647 -0.0017689177 0.0018126376 0.0005386721 0.0006924898 -0.00072706403 -0.0008254492 0.0005750879 0.00070329 -0.001967013 -0.0005709559 -0.0012122578 0.0011618205 -0.001354572 0.0014106345 -0.0004634688 0.00067790295 -0.00096484966 -0.00047876424 0.0012696281 -0.00019003551 0.0016686865 -0.0011042127 -0.0004028801 0.00089214277 4.736396e-05 -0.0008005956 -0.00058742973 -0.0013010321 -0.00032428862 -0.0010552286 -0.0017307652 0.00024018134 -0.0007008323 0.001965683 -0.0013537715 0.0014029398 -0.0008976506 -0.001077284 -0.0015074317 -0.00025201842 0.0013872172 0.00031270296 -0.0019945179 0.00067426945 0.00089434476 0.00041642936 -0.00114656 0.0010394275 -0.00042378728 -0.0015043941 -0.000115292205 -0.0013313672 -0.0011180671 -0.0003993105 -0.00056372787 0.0012767899 -0.0013279462 0.0014313369 -0.0012325889 -0.0018023684 -0.0007256118 -0.0019479195 0.0002840196 0.0014577033 0.00037050789 -0.0015598487 -0.0014204994 -0.00012965301 0.0010195185 -0.00060890865 -0.0014742711 0.00043202145 0.0018994221 -0.0011005675 0.0008260875 0.00066277134 0.002170581 0.001435561 -0.0008453666 0.00038818593 -8.068961e-06 -0.0010749757 0.00021617256 0.0003418492 -0.0018706119 0.0007153034 0.0015408112 -0.00055898295 0.00037525425 -0.00047492748 0.001706479 -0.0009724965 1.7942006e-05 0.00021960255 0.00036151404 0.0010389063 0.00068346807 -0.0008772913 0.001518809 -0.0005085661 -0.0007271556 -0.00072203076 -0.0003561281 0.00013266905 -0.000110121226 -0.00092475896 0.0013377628 -0.0011664309 -0.00027555015 0.00052277726 0.0017291522 -0.00039839608 -0.00072464143 -0.0025452403 0.00055843825 -0.0005863142 -0.00068430684 -0.0001472388 0.001530653 -0.0018622795 -0.0023489632 -0.0013756455 0.0009765885 -0.0011053617 -0.00074914534 -0.0007459547 -0.00085256755 0.0016669582 0.0008174168 0.0009187499 -0.001510448 -0.0010923153 -6.3365325e-05 0.0013099463 0.0008202331 -0.0003707839 -0.00030655687 0.0016956156 -0.0018070337 8.688737e-05 0.0010012739 -0.0014890626 0.0005915519 0.0023310212 -0.00045118536 -0.00018175764 0.00021998945 0.00021224737 -0.0005412429 0.0015840312 0.0018806579 0.00092740136 0.0003485159 7.062735e-05 0.0005454779 -0.00041004978 0.0003559913 0.00096776296 -0.0016296721 -0.0017310506 -0.0014777853 -0.00024296512 0.002299001 0.0005762432 0.00055748114 0.0013188797 -0.0007494108 0.00026276006 -0.0010261539 0.0013034063 -0.00039240997 0.0014504914 -0.0010273001 0.0016527553 -0.0009829259 0.00055704697 0.0006965172 0.00077590573 0.0014649987 -0.00045591983 -0.00031328903 0.0003669636 0.00079295714 -0.0018585331 0.00021355905 0.0011931724 -3.383226e-05 0.0008813499 0.0009499624 -0.0013908132 -0.00013765802 -0.00056820124 -0.00044551777 -0.002076736 0.0005703932 0.0011141592 0.00034201992 -7.660569e-05 -0.00091646146 0.0024720677 0.00043162855 0.00016160366 0.0012472256 -0.0015356828 0.002089203 -0.0022332142 -0.0019659852 -0.002024022 -0.00034562763 0.0007611423 -0.0008645076 -0.0011481692 0.00027954014 -0.00026263343 -0.00048584523 0.0006202238 -0.0012761696 0.0010589582 0.0013073739 0.0003818952 -0.00042562254 0.0017464345 0.00022847946 -0.00035435605 -0.0015349069 0.0011895767 7.253077e-05 0.0019353719 -0.0017577048 -0.00086303835 0.0011561081 0.0012638129 -0.00023487645 -0.0018664489 0.0016045352 0.00092302903 0.0016177268 0.0010713008 0.001762605 0.0017322266
好 -0.00131149 0.00074582367 0.0020241814 -0.0016631242 0.00013402382 -0.000867128 0.00082518545 0.0016807202 0.0015450213 0.001562617 -0.00053566 6.5312255e-05 -0.00014609192 -0.0011539723 -0.0005421809 -0.00042517838 -0.0014885524 5.100047e-05 -0.0003877792 0.0005193475 8.293407e-05 0.0019684895 0.0014117721 -0.00045914837 0.0007884079 0.0016455477 -0.0017933927 0.0009843548 0.0006635439 -0.0011561866 -0.0016884027 0.0019147522 0.00018267501 -0.00081494474 -0.0013704518 0.0011794713 0.0013695448 -0.0010271551 -0.0006411605 6.428254e-05 -0.0008186283 -0.0007766167 -0.0002186546 0.0004710105 -0.0006363813 -0.0017829171 -0.0012693921 -0.00071808 -0.00093476067 0.0013876162 0.0016121567 -0.0009980253 -0.0010069197 -0.00029643576 -0.00029202245 0.001057885 0.0011492404 0.00038229206 -0.00089865725 -0.0005470502 -0.0018067183 5.526636e-05 0.00025975172 -0.0010034023 0.00057195185 0.00057756505 -0.0013873754 0.0013337943 7.791147e-05 0.00046627928 0.0010286479 0.00012605255 0.0010180296 0.00017478457 -0.0014770352 -0.00078397355 -0.000536358 0.00046961644 1.0559099e-05 0.0012210548 0.0016056867 -0.001819235 -0.0010383774 0.00082731707 -0.0007178753 -0.001099455 -0.0007371795 0.0017096294 9.5055235e-05 0.0013550338 0.00035317778 0.0016525133 -0.0014382451 0.00090111507 -0.0007638746 -0.00056092854 -0.00055561 0.00074879185 -0.0016875371 -0.0015814957 0.0006366368 -0.00041443668 0.0017839554 0.0004660903 0.0015232802 -0.0015750868 0.0011819943 -0.001575131 -0.00077661587 -0.0012650017 -0.00083572493 0.001757601 0.0017160857 -0.0008535865 0.00092362333 0.0012290474 -3.3556622e-05 0.0017492303 -0.00068780285 -8.869227e-05 -0.00025101812 0.00035080098 -0.0015980862 0.0010592286 0.00042079558 0.0013145275 -0.0013299364 0.0016555375 -0.0006024066 0.0014492751 0.0014602513 0.00037300648 -0.0007323284 0.0014411965 0.000610093 -0.0017001373 -0.0018143896 0.00025690187 -0.0010732843 0.0011161574 -0.0004023669 0.0007581832 -0.0016771527 0.0003741433 0.00023118198 -0.0017837533 0.00070826325 0.0014292937 -0.0012991421 -0.0011749897 -0.00010663885 0.0018835278 0.0011196625 -0.0015664652 -0.0015831576 -0.0011958121 -0.00053365115 -0.00018340134 -0.0006376426 -0.0016982717 0.0009112272 0.0009772289 -0.000784952 -0.00012351197 0.0017414113 -0.00062542566 0.0016906214 -0.0016802788 0.0007282721 0.0007277047 0.0010516653 -0.00024950466 0.001237636 -0.0018261763 0.00033396433 0.00043460508 -0.00017791151 -0.00084479887 -0.0015344275 -0.00043779647 -0.0004499777 -0.0003741233 -0.00020537076 -0.00034798123 0.0017501778 0.0005161412 0.0012165442 0.0012698297 -0.00063072215 -0.00087079575 0.0007138664 0.00043942156 -2.5021195e-06 -0.0013294845 0.00074167957 -0.0018008318 -0.00046732655 -0.00047178246 0.0006799369 -0.0005205513 -0.00012725417 9.6614654e-05 0.0012997902 0.0008418944 0.0019276802 -0.0011978133 0.0011875166 0.0016027071 0.0009834666 0.0017762869 -0.0016699014 -6.471437e-05 0.001905467 0.0017742295 -0.0021869307 0.0017261372 0.00048138015 0.0018384713 0.0005263343 0.00057400245 0.0011004773 0.0012243419 0.00035764664 0.0016208574 -0.0013267352 0.0017048582 0.0018838283 0.00043118282 -0.0006828576 0.0012074892 -0.0012355963 0.0014860028 -0.0017235676 -0.0017582966 -0.00033885628 -0.001594811 0.0005860513 -0.0010782162 -0.0014678793 0.0016952662 0.0019771827 0.0019050248 -0.0016049406 0.0010727575 -0.0006308557 -0.00023132974 0.0018112432 0.0016214004 -0.0002424719 -0.0018206232 0.0017291869 0.00056725676 -0.0013368954 0.0019581944 -0.00048307504 0.00038686773
刚哥 0.0007043986 0.0016179282 0.0002801938 -0.0015841374 -0.00078479876 -0.0014284678 0.00081538927 -0.0005682629 0.0007730556 -0.00063478394 -0.0014402358 0.0009324231 0.00086844916 0.0008851323 -0.0016464784 -6.285923e-06 0.00064047455 -0.00136777 -0.0019069581 -0.0007661367 0.001646569 0.0016067715 -0.001312505 0.0007816777 -0.00076000876 0.0015143681 -0.0004933152 0.00062014203 -3.0741427e-05 -0.0017208181 0.0012331395 -0.0007605522 -0.00075949915 -4.1184167e-06 -0.0001928959 -0.000937484 -0.0012420075 0.00035605117 0.0011944121 -0.0017023135 0.00079263246 0.0011511381 -0.00019764953 -0.0005564142 0.00038104516 -0.0016955654 -0.0014427892 -0.00033843302 0.0009423471 -0.00037673512 0.0016382926 -0.0010116603 8.1890576e-05 0.00040381885 0.00068193267 0.0010080081 -0.0016185212 -0.0018999398 -0.0018982651 0.00011276932 -0.0003164733 -0.00035581554 -0.0011231995 0.00038973856 0.0014876572 0.0008505787 -0.0010440442 0.0006503724 -0.00013651683 -0.0012878774 0.00090196973 -0.0011562756 -0.001176659 0.00051343295 -0.0017661776 -0.0007195038 -0.0012851518 -0.0012802491 0.0012823447 -0.0004854935 0.00053148577 0.0010548608 -0.0011570025 -0.0009553555 0.001499435 0.0015890376 -0.0005133122 -0.0018876315 -0.0018014432 0.0013944578 0.0020515297 0.00085433346 -0.00034096063 -0.00079802796 0.001919327 0.001422741 -0.00054607977 0.00020520482 0.0017253751 0.0003949298 0.0014234051 -0.0011385119 0.0017840265 -0.0016587181 0.0019385561 0.0017363376 0.00085618935 -0.0005125397 0.001693733 -0.0012487991 0.00026320247 -0.0010918042 0.0019595288 -0.0003412556 -0.0006017949 0.0002041924 0.0012336882 0.00056173856 0.0014227353 -0.0001861511 0.00022969664 0.0013888079 0.00014669664 -4.493144e-06 -0.0014472451 0.0018938594 0.0005966456 0.0015391378 0.00021120925 -0.0013902948 -0.00042978697 -0.0016416134 0.001731993 0.0009787668 0.00070587505 0.0004904883 0.0007838318 0.00013005818 0.00039499675 -0.0010140823 0.00058744877 -0.00023518656 0.0011833062 0.0005858322 -0.0015900775 -0.0016647233 0.00060406333 0.0003467834 -0.001859588 -0.0015613944 -0.001685732 0.0014732894 -0.0017377583 -7.551082e-05 0.0008610007 -0.0010890611 -0.0012295155 -0.0012506448 0.0011155976 0.0007131414 0.00021833835 0.0015894367 -0.0014991893 0.0019609896 -0.0009927261 -0.0009836308 0.0014020626 -0.0009474133 -0.0015338308 -0.00057544996 0.00042284268 -0.00090569694 -0.0019232307 0.0002605462 0.0007040738 -0.0008147135 -0.00029181945 0.0017722232 0.00016495532 0.00086981035 -0.0015338655 -0.0016810297 0.00018772023 -0.0015029283 -0.0010498627 0.00065424835 0.0013683051 -0.0016235275 0.0017364727 -0.0014863373 0.0010920207 0.0006089405 -0.000824447 0.00082810386 0.0006166656 0.00077623286 -0.0003956842 -0.0017575736 0.0019850875 -0.001994597 -0.001226151 -0.0009013804 0.0018116173 -0.0010726368 -0.000348133 -0.0017142899 0.00065079733 0.0018409089 0.0010150694 0.00078612525 -0.00010007201 0.00130192 0.0019259104 0.00022156282 -0.0017887752 0.001958625 0.0017349769 -0.00063288835 0.0015662272 0.0010514972 -0.001698326 0.0002744134 0.0016063588 0.0011919296 -0.0018545758 -0.0010944133 0.0019289483 0.00070830423 -0.0015173781 0.0013738973 2.688018e-05 0.0005359337 -9.0540016e-05 0.0001260397 -0.001926421 -0.0013687861 0.001341242 0.001353166 -0.00044436418 -0.0019251985 0.0011264619 -0.000584134 -0.0011348373 -2.886655e-05 -0.00082943495 -0.0017591609 -0.0010626822 0.0015551579 -0.00093182904 2.5440379e-05 5.6949684e-05 -0.00023766466 -0.0013757877 0.00032866336 0.001146569 0.0010257058
膜 -0.0007224005 -0.0006334143 0.00085572415 0.0015504237 0.0010894809 -0.0015231676 6.35026e-05 -0.001878817 0.0008748567 -0.00060093694 0.0001998037 0.0013990144 -5.502232e-05 0.0005752904 -0.0014993208 -0.0012932227 -0.0019334364 -0.0011106064 -0.0016737503 -0.0002744361 -0.00083439023 0.0010676538 -0.0020121348 0.001111144 -0.0020967647 -0.0018110708 0.0009378614 -0.0017593158 0.0021064025 -9.14974e-05 0.00011872806 0.0010400004 -0.0013018544 -0.00037367505 -0.001843375 0.0020607433 0.00064941094 0.00089565525 -0.0011633164 -7.472802e-05 -0.0010167382 -0.0008515949 -0.0016168179 -0.0015520332 1.0238492e-05 -0.0009711168 -0.00083393365 -0.002153596 0.0020101652 -0.00047585735 0.00072299346 0.0015901873 0.0016535217 0.00095989567 -0.0018784069 -0.0016637456 2.9375455e-05 0.0004020379 0.0008255859 0.00059318956 0.00052302034 -0.00091243174 0.0013640679 0.0014458974 -0.0007645388 0.00068885245 -2.6316722e-05 -0.00013860363 -0.0018020859 0.0016581535 -0.00020359832 0.0011426099 0.00053423265 -0.0017250082 0.0009696348 0.0006224982 -0.0006803108 -0.0009588326 -0.0021208161 -0.0011369125 -0.0005204113 -0.0011416744 -0.0018075618 -0.0014780305 0.0013571273 0.00091523177 0.00034229958 0.00021234827 0.0003764642 0.001160725 -9.585144e-05 0.0010518522 0.0017226556 -6.0892864e-05 0.00125853 -0.0012356404 -0.00038560844 -0.0007645911 0.0011359645 -0.0019222049 -0.00021630438 0.0011052985 4.772622e-05 -0.0023711014 -8.360416e-05 0.0011221789 2.8380306e-05 0.00054354337 -0.0013461123 -0.0010718638 0.00027731 -0.0006396997 -0.00029411033 -0.001321544 -0.0010159669 -0.00065290264 -0.0012901366 0.00024254847 0.0020683017 -0.0015207609 -0.0006723367 -0.00047387133 -0.0004526842 0.0012625572 0.0009973253 -0.00073855574 -0.0012792184 0.0003622759 0.00037828877 -0.0020466642 -0.0012705744 0.0016716731 -0.0014413808 0.0015110428 -0.0013900216 0.0016070117 0.00083278737 0.0019694103 -0.0015570433 2.4032533e-05 -0.0011111543 -0.001186485 -0.0013007476 0.00070357026 -0.0012506444 -0.0012576068 -0.0011876795 -0.00065589667 -0.0020081524 -0.0011126294 -0.0009765155 0.0015535066 -0.0009192031 0.00074357097 -0.0018150082 -0.0009135347 0.0010352038 -0.0010212174 -0.0011914942 -0.00044817993 0.0018374778 0.0016857622 0.0016763493 -0.0015033226 -0.0005727965 -0.0019216562 -0.0011472544 -0.0017143736 0.0014215282 0.0011930092 0.00094028516 -0.0013050613 -0.00080601964 -6.185041e-05 0.0018137684 -5.1930023e-05 -0.00077246997 0.001658738 0.0014264924 -0.0012895995 -0.00014356208 -0.0016823041 0.00034694336 -0.0019806614 0.0019738055 0.0022074957 -0.001710923 -5.809781e-05 0.00032499424 0.0008014827 0.00076921575 0.0007595604 0.001080627 0.0005939638 -0.00054799434 0.0010788277 -0.0007573009 0.0018860345 0.00033425674 0.0012248603 0.0009319609 0.00080013776 0.0020558194 -0.0016657592 -0.0018331974 0.0013667432 -0.0012311912 -0.00075175375 -8.656574e-05 3.4327244e-05 0.00016047581 -0.00068379537 0.0018745441 -0.0012682532 -0.0023335156 -0.0005354944 -0.0016890123 -0.00044318996 -0.0018539475 0.00165081 0.00017997494 0.0015779408 -0.00093283557 0.0015234187 0.0011506131 -0.0016233826 0.000105461295 0.0014137732 -0.0015683115 0.00013465546 -0.0021864646 -0.0016521151 5.200685e-05 0.0010779672 0.0016467742 -0.0018818807 -0.0014266707 0.0011004236 0.0005027188 -0.0005704156 0.0013109383 -0.0016216512 0.00096668786 0.0011394634 0.0004942824 0.0011248918 -0.0003880973 0.0015882825 0.0017651303 -0.0023753587 -0.00039531835 -0.0015673644 0.0021101553 0.0015532308 -0.00092134316 0.002132494
m2 0.00034676897 0.0006912912 0.0011392112 0.0013453208 0.0005178956 -8.421599e-05 0.0020681913 -0.0018482542 -0.0011496168 -0.00039746123 0.0015504432 -0.00037568616 0.0017373349 -0.001859341 -0.002450236 -0.002130865 0.0013545554 -0.0009086182 -0.0014468455 -0.00027338407 0.0020939314 -0.0012516961 0.001558798 -0.0007347335 0.0001554678 -0.00073015207 0.0016614177 -0.0009505597 0.0013450555 0.0021733164 -0.0015200708 -0.0007773181 -0.00014926287 0.0005587775 -0.0010221266 0.0009903775 -0.0011832251 0.0007696165 -0.0019399034 0.0002469318 -0.0006597244 -0.00095514057 -0.00092292204 0.0011204391 -0.0018512297 -0.0004001213 0.00011733643 -0.0006787613 0.0005194197 -0.0007828657 -0.0020930194 -0.0018019616 0.00027062398 -0.00046251662 -0.0007345145 -0.000611162 -0.000806787 7.911981e-05 -0.0001769825 -0.0007608615 0.0017062026 0.0016607034 -0.0015631026 -0.00078315084 0.0013454203 0.0017183386 0.0002490158 -0.0020728232 7.549574e-05 0.0006349417 2.5238125e-05 -0.00022344496 0.001671348 -0.0012341402 0.001989328 0.0019606769 -0.0013475243 0.0011017685 -0.00026877286 0.0016188582 0.0013807866 0.0014207194 -0.0018391988 0.0018774231 0.0017357273 -0.00050453603 0.00044932184 -0.001686183 -0.0016528608 0.00027868256 0.0022349365 -0.0003272618 0.0013810238 0.0009801098 0.0013400048 0.000240609 -0.0010968469 0.0013918369 -0.00065371586 -0.0020135585 9.8046796e-05 -0.00077360444 -0.0011006701 -1.6698943e-05 0.0013477181 -0.0016932348 0.0014529121 -0.0006392206 -0.0017463189 -0.0016080315 -0.00126704 0.0013295377 0.0010900019 -0.0006798151 0.000563369 -0.0010846499 -0.0006481568 -0.00044128482 0.00055207417 -0.0014920501 0.00033763866 0.00033230757 -0.0014191 0.0010968624 -0.0009127722 -0.00015620013 0.0017991917 0.00019274109 -0.0016900052 -0.0016599628 0.00034785026 -0.0013356239 -0.0017504782 -0.0012591779 -0.0010370513 0.0005216136 -0.00217089 0.001053423 0.00096169836 0.0001371068 0.0014522095 0.00092402473 -0.00023879962 0.0015832767 0.0018678546 0.00064457604 -0.0014497945 0.00081721286 -0.00068460015 0.00035095192 -0.0011636062 -0.0008897041 -0.0019976336 -0.00019478606 0.0019543767 0.0012630331 -0.0016394356 -0.0015541356 0.0013291035 0.00046496568 0.0018342955 -0.001536478 -9.866686e-07 0.0015744141 0.0013979158 -0.00103834 0.00035926767 0.00038231883 0.00018380796 -0.0016897896 -0.0008114115 0.0018450525 0.00039332936 0.0014952184 2.7087293e-05 0.0009791267 0.0010148826 -0.0007605365 0.00158998 0.0020425383 -0.0009769178 -0.0016422889 0.00056315627 0.00041963274 0.0013589284 0.0018840921 0.0017304478 -0.0006450595 0.0012042177 0.0010774361 -0.0007719626 0.0018294104 0.0019592429 0.000939437 0.00038896006 0.0010713309 0.00089175283 0.00077458774 -0.0012846091 -0.0021403588 -0.000578757 -0.0012351617 0.00014900908 -5.6030905e-05 -0.00182408 0.0008338902 0.0016218775 -0.0009758239 -0.0014588065 -0.0017993156 0.00041599118 -0.0014300004 -0.00015608495 -0.00045018445 -0.0021723025 0.0022373877 -0.00023836964 0.0001553248 0.0014634477 -0.00018250177 -0.00018404306 -0.0008245588 -0.0021315177 -0.0019247904 0.00017593004 0.0011661714 0.0020232843 0.0011242988 -0.0013935558 -0.0018109957 0.0013200007 0.0014117616 -0.0019587216 -0.00081735605 0.0007686618 -0.0010819744 0.00065323804 -0.0018052292 -0.0015506068 -0.0016893275 0.001010791 0.0017308665 -0.0009238548 -0.0010188197 0.0019813655 0.0008641058 -0.0013065977 -0.00057583785 0.00016647867 -5.8359587e-05 -0.0007013618 -0.0003099976 0.0010749511 0.00071249047 0.0012531949 -0.0012357315
视频 -0.00093211816 0.0007229691 0.00046048118 -0.00027207588 0.0007932352 -0.00015230011 -0.00045016652 0.0016377656 0.00042278488 0.000655624 -0.0003598725 0.00076854543 0.0011970568 -0.0002131358 -0.00014377579 0.0003570341 -0.00029699385 -0.00021396928 -0.0006820702 -0.0011179873 0.0012416644 0.0004109261 0.0017436525 -0.0014146172 0.00011135748 0.0015178929 0.0019585686 0.00071663863 0.001601407 -0.00064505957 0.001425011 0.0019476922 -0.0018165432 -0.00088768295 0.0015166325 -0.0016672567 0.0015746094 -0.0018889724 0.00078020355 -0.00080192613 -0.0009687712 -0.0014160507 -0.00033518442 0.00018595821 -0.00054078735 0.0007137435 -0.00021707696 -0.00083702273 -0.00082475005 0.00059364823 0.0010130389 -0.0017565691 -0.0018692876 0.0009753028 -0.0012546026 0.00041996106 0.0010181052 -0.0002605327 -0.00039321173 0.0018334952 -0.00035112494 0.0012596778 -0.0009621884 0.0010869289 -0.0017749234 0.00017660705 0.0015994111 0.00019049362 -0.00084365945 -0.0019881611 -0.0005510133 0.0018027156 -0.0005016677 0.0012006608 0.0009686986 -0.0012679962 -0.0018202765 -0.00060341886 0.0003407097 0.0010352264 0.0017543319 0.0008775069 -0.00043075962 -0.00059046986 0.00012456895 -0.00071951014 -0.0010128055 0.0014288955 0.00027465966 -6.970444e-05 0.0006475774 0.0010457366 -0.000433036 -0.00073906395 6.709038e-05 0.0013371692 0.00080554397 -0.0005101221 0.00068662246 0.00024514357 9.1160604e-05 0.0018148547 0.00026114658 -0.0012081192 0.00018310512 -0.00024138002 0.0013367513 0.00018243784 -0.00026381153 -0.001897207 0.00018833858 0.0013509919 0.00041990017 -0.00052915065 -0.0003330796 0.000625904 0.00096569885 0.0005436985 -0.0010836954 -0.00025864947 0.0014272053 0.0006565277 0.00025719462 0.001599319 0.0015394723 0.0008079173 -0.0018815667 0.0017196846 -0.002103214 -0.0012134793 0.0020496175 0.00052973983 -0.0001819666 -0.0009133157 0.00039442215 -0.0020197888 -0.00044055952 0.00013528211 0.0020806098 0.0013149431 -0.00069974514 0.0005283452 0.0009776421 -0.0010619684 0.0010816153 -0.0017349959 0.0013376317 0.0017474709 -0.0014917465 0.0013706869 0.00048666363 0.0016869678 -0.00040035637 -0.0017327372 -0.0015523189 -0.0002679514 0.00023678794 -0.0017448278 0.00095385243 -0.00016360854 0.0015698989 0.0004914264 0.00087615714 -4.5955803e-06 0.0010766272 -0.0021169446 -0.00042021883 0.00048735522 0.0006477585 -0.0018336878 0.0018850826 0.00046420287 0.0013201132 0.0005382712 0.0015958364 -0.00039885385 0.0009711507 0.0015564802 -0.00045059787 -0.0016340063 0.000314178 0.0011471751 0.0012160735 0.0009632299 4.5898334e-05 -0.0017592327 0.00015616512 0.0014063029 0.00080128503 0.0012195684 -0.00014294272 -0.0004916275 0.0014859169 -0.0010772039 -0.0004854606 0.0017470574 -0.00091264717 -0.0011764843 3.5411715e-05 0.0012967865 0.00039625823 0.0007060123 0.0010379287 0.0018190832 0.0018445804 0.0010319576 -0.00013360367 -0.0014983672 -0.00089453603 -0.0011926531 -0.00018002861 -0.0012040398 0.0013888128 -0.0008114654 -0.00032723488 -0.0012591559 -0.0005312219 -0.0011232813 0.0010939871 -0.00045810937 0.0017350566 -0.0005327972 -0.0011450658 -0.0016343686 0.0006650164 -0.0008138375 0.0009816036 0.0008006569 9.434082e-05 0.0010103416 -0.00073846703 -0.0019516707 -0.0016829732 -0.00043073596 -0.0005781417 0.00038337123 0.0007980573 0.000916366 0.0013005892 0.00081093644 -0.0018967339 -0.0015971015 -0.0005192651 -0.00065573683 0.00068125693 0.0014313486 0.0014280062 0.00029245298 0.0017382425 -0.002221339 -0.00063734537 -0.0012412876 0.00019519821 0.0019774528 0.0007228927 0.0011844852
感觉 -0.00030633094 0.0016471852 0.0007791693 -0.0017737356 0.0006405993 -0.0017657992 0.0017563818 0.00033267142 -0.001650101 0.0012434116 -0.00040936033 -0.0007107628 -0.0002735783 -0.000873862 -0.0023331426 -0.00051867595 -0.0017731632 0.001018408 -0.0006986215 -0.00028209298 0.0004248274 0.0012718108 0.0008056238 -0.0015041981 -0.0009886388 -0.0016735663 -0.0012985703 -0.0012791149 -0.00058662024 -0.000878951 -0.00035960166 0.0002277037 -0.00023016421 0.00015381104 0.0010260615 0.0015597055 0.0010599332 0.0012708558 0.00024764927 0.00021374482 0.0010398634 -0.0012372811 0.00051593763 -0.002183447 -0.001175954 0.0018254386 -3.0636646e-05 0.0010858575 0.00095032965 0.0016229347 -0.0020294331 -0.0019150227 -0.0018809432 -0.0016167926 0.00065691845 -0.00013987161 -0.001569321 -0.00035595018 -0.0016905406 0.0015935628 -0.00087461655 0.00060940103 0.0015180195 0.00095105247 0.001802657 -0.0002343917 -0.0008709072 -0.00043303714 0.001358371 -0.00040002918 0.0013423171 -0.0017472501 -0.0011035447 0.00017025541 0.0008513128 -7.223933e-05 0.0005971162 0.00023962792 -0.001993296 0.0012824908 0.0011457885 -0.000711254 0.00027901932 -0.0008937228 0.0016369373 -0.00017621963 0.00115489 0.00015957518 -0.0013564719 -0.00086708565 0.0009480189 -0.0005347797 0.0011770088 -0.0009861065 0.0017573335 -0.000907192 6.383959e-05 0.0010439097 -0.0010308732 -0.0021018197 0.00081066816 0.0005525069 0.0004366506 -0.00015413752 -0.0018028449 -0.00014858852 -0.00093752984 -0.000284067 0.00033303423 -0.0015121963 0.0014054977 -0.0015992319 0.0020719238 -0.0019880969 0.0010168501 -0.0018377558 0.0006913024 0.0018205136 0.0018705378 -0.001230118 0.00028955814 -0.0014732196 -0.001543628 -0.00045913667 -0.00050911366 -0.0013276307 0.0015866571 0.0015769537 0.0010304359 0.00037915114 0.0005977049 -0.0021288272 -0.00049176085 -6.588644e-05 0.0007698998 0.0016365324 -0.00031566343 -0.0004969919 0.0012617129 -0.0019070226 0.00022413596 0.0008384992 0.0015966258 0.0009533858 -0.00025646813 0.0014668638 0.0011620708 0.0014815201 -0.00045922716 -0.001636351 0.0012459545 0.00039463473 0.0015524846 0.0018396167 -0.0014829986 0.0009487381 -0.0009122252 0.0010999844 0.0011155127 -0.0004793635 0.0010383929 -0.0006214103 0.00029720244 -0.0005600472 0.001060379 -0.0011085023 0.002022193 -0.0013588852 0.0010345369 0.0005299407 -0.0011952079 -0.00050672365 -0.001026311 -0.0007599063 0.0017528476 -0.0010851278 -0.0012789062 -0.001111088 -0.0003680848 0.0017696611 0.0009701132 -0.0018260514 0.0005931853 -0.0016188371 0.0009015139 -0.0002789105 0.0012527686 -0.0017197033 -0.0013231345 0.001237845 -0.0011545792 0.0008795995 0.0008402204 0.0003498017 0.0008369898 0.00014218612 0.0010391371 0.0012346697 0.0015220009 -0.0021533493 0.00092417 0.0019935581 0.0010471118 0.0014609039 -0.00090854365 0.00050921727 -5.205566e-06 0.001601197 -0.0018192247 -0.0020912492 0.0011640019 -0.0014056406 0.0016567704 -0.0015511941 -0.001457888 0.00071201904 -0.0011218004 0.0020616986 0.0015174206 -0.0005708364 -0.0010000946 -0.0010975386 -0.001119588 -0.000111962305 -0.0011471054 -0.0013337857 -0.00035052001 0.0009318844 0.00039882064 -0.0013983797 0.0012485672 -1.801972e-05 -0.0012389487 5.3589476e-05 -0.00034688824 -0.00059087324 0.00043874214 -0.0016878863 0.0017815006 -0.0005423822 0.001586266 0.0016846111 -0.00090556237 0.00042123965 -0.0011397173 -0.00083243573 0.001472361 -0.0017466253 0.0019260269 -0.0008482149 0.0020334201 0.00076590915 0.0007358987 -0.00057868037 -0.0018351395 -0.0012151311
口罩 0.0007127025 0.0009877866 -0.0009978445 0.00026744299 0.0013275971 -0.0012709657 0.00077554886 -5.050023e-06 -0.0010623137 -0.0018578013 0.0014197134 -0.0003393665 -0.00040054665 -0.0014608887 -0.00017795608 -0.0017476983 0.0009364016 -0.0006018094 -0.00019907333 0.0003454275 -0.0011909156 -0.0003693976 -8.7726105e-05 0.00014409059 -0.00057968614 0.0018720508 0.001185729 0.00026269405 -0.0013350925 -0.00042128155 -0.0018954566 0.00095817127 -0.0007185147 -0.001185407 -0.0015247514 -0.0017852519 0.001489568 0.0012478875 0.0010677485 -0.0009923943 -0.0014079644 -0.0012819262 -0.0018812293 -0.00010194875 0.0017681145 0.00032161 0.0014518143 -0.0017830532 0.0013623224 0.0019311268 -0.0012849411 0.0007811137 -8.8054345e-05 -0.00014221849 -0.0018287877 -0.0009179657 0.0010457593 -0.0004220625 0.00071147474 0.0016768784 0.0007439661 0.0017227378 0.0001403152 -0.001162329 0.00047466008 0.0017118617 0.0016551726 -0.0009912637 0.0013735456 0.0017611367 0.0018340504 0.0010331613 -0.0010636463 0.0018669401 0.0010474081 -0.0006836436 -0.00036923378 -0.0009766136 -0.0005128967 -0.00040519648 0.0015546147 -0.0014410445 -0.0018128963 0.0001907114 -0.00092752127 7.041742e-05 -0.0009328067 3.82971e-05 -0.00020921534 0.0009252118 -0.0001020463 -0.00047833414 -0.0014914167 0.0018683955 0.0005236686 -0.00039765597 0.0011141289 0.0006871357 0.001631477 0.0015641716 -0.0003843768 -0.0008298279 -0.00047484733 -0.0014186758 -9.288684e-05 0.0014629047 -0.00092742586 -0.0017829736 0.00071332796 0.000115807976 0.0014484855 0.000514865 -0.0014459962 0.0002192643 0.0005189894 0.00076340616 0.0016758515 0.0006033494 -0.0005163154 0.00050868146 -0.001254415 -0.0012166487 -0.0006285167 -0.00031530444 0.001514559 -0.0016768104 0.00015150504 0.0014407164 -0.00024112272 -0.00077306153 0.00057949306 -0.0013280697 -0.0014623207 -0.0015885131 0.0010989059 0.0012380658 0.00035701654 -0.00038911978 -0.0010823965 -0.0005407695 0.0017203568 -0.00030190067 -0.0009928109 0.0018804068 0.0014344716 -0.0009386798 -0.0012108703 0.00012768344 -0.0014134059 0.00089126616 0.0007330266 -0.0019064981 0.00010658188 -5.409747e-07 0.0012461203 -0.0010503707 0.0018943365 -0.001362795 -0.0016804788 -0.0010529509 0.0009905127 0.00018253918 -0.0018477895 0.0018228816 -0.00094086176 -0.000624908 0.00060632126 -0.0007798988 -0.00021496828 -0.0016385476 0.00130992 -0.0014849588 2.0535904e-06 -0.001156073 -0.0014822123 -0.00043527596 0.00012670198 -0.000897512 0.00040872727 0.0012006259 0.0016573053 -0.00046137348 0.0005359689 -0.00018805401 0.00035449467 -0.00093307474 0.0013846335 -0.00091637543 0.0011354027 -0.0007986404 -0.0009454631 0.0010009363 -0.0018419764 -0.00044323492 -0.0016774826 -0.0017448779 0.0016565978 -0.00084421947 0.0002698364 0.00066985225 0.0018996134 0.0002167188 -0.0017544955 -0.0013069742 -0.0014060716 -0.0013116521 -1.6775199e-05 0.00017313723 0.0007508677 -0.0019686217 0.0016589989 6.9754686e-05 -0.0012101316 -0.0017702209 -0.0019871127 0.0015005282 0.0006116434 -0.00010489099 0.0004984658 -0.0003997812 -0.0017996583 -0.0015843302 0.0011761182 0.00020081652 0.0017363008 -0.0016731066 0.0016290453 -0.0015966122 -0.0019598298 -0.0013546235 -0.001262722 8.9145935e-05 0.001435407 0.0015303498 0.0005279428 0.0005717375 -0.00065378717 -0.0008310978 -0.0007695542 -0.00023831852 -0.000687954 -0.0013944576 0.0010111961 -0.0011753882 0.0002858858 0.0013806894 -0.0008702724 -0.0012615016 0.0005339075 0.0016103501 -0.0015221201 0.00093984837 0.00022431929 0.0002793873 -0.0006234326 0.00050353835
备案 0.0009226133 0.0016600627 0.0010284171 -0.0014855913 -0.0005742748 -0.0011064052 -0.0005868977 0.0007198828 -0.00020267355 -0.0006671755 -7.1980045e-05 0.00032180044 0.0010239388 6.26816e-06 -0.0007971956 -0.0013314231 -0.00024324431 -0.0016187233 -0.00046715548 -0.00080384803 -0.0006795477 -0.00018826291 0.00036725018 0.00094747223 0.00051464705 -0.0014711522 0.0005783819 0.0012439672 0.000111114496 0.0016755797 -0.00034413114 0.0004694254 0.0013248199 -0.0016509725 0.0014444549 -0.001271075 -0.0015276124 -0.0005229921 0.0010088601 0.00013911452 0.00069379964 0.001776091 0.0015620439 -0.00014174946 0.0013583371 -0.0015422679 -0.0009263594 -0.0012820405 0.0004424818 0.0019886738 0.00072617666 0.001513176 0.00091864855 -0.0006372202 -0.0005595915 7.204724e-05 0.0013268105 0.0004821802 -0.0020485956 -0.00087255315 -0.0011351961 0.001826829 0.0014643582 0.00034118292 -0.00010654677 0.00011209683 0.0010810428 -0.001383676 0.0017430681 -0.0015938135 0.0009737088 0.0019279717 -0.0019083868 0.0009855258 0.0008562702 0.0007508026 -0.001717502 0.000748875 -0.001653449 -0.0016647689 0.0013872685 0.00012044258 0.0012598418 -0.00018817166 0.0016893235 0.0013647735 0.0012210321 0.0017386201 -0.0011391486 -0.0013089022 0.001039538 0.0006959644 0.0002974951 0.00058048306 -7.4081768e-06 -0.0016922664 0.0013895194 -0.0006707505 -0.0015968092 0.00016204051 -0.0016195759 0.0018036006 -0.0007792239 0.00041366505 -0.0011442725 0.001264454 0.0008642817 0.0019028751 0.0012957224 0.0011836643 0.0009503173 0.00023448165 0.0007721792 -0.0016809219 -0.0015624713 0.0006179735 -0.0014939216 -0.001836632 0.00036794998 -0.001105364 -0.0014716364 -0.0006879488 -0.0011867385 0.00022276714 -0.0010203659 0.0015055944 0.0018857111 -0.0012060809 -0.0009092535 -0.001964877 3.867186e-05 0.0010086889 0.00012666034 -0.0006090374 0.0013453991 -0.00073363306 -0.0020414726 -0.001082948 0.001238814 -0.0009904865 -0.0018145225 -0.0015071867 -0.0016431271 0.0016888109 0.0018584029 0.0008945404 -0.0015678396 0.0006339317 -0.0016742173 -0.00066206977 0.0017309273 0.00034265334 -0.0012355138 -0.00020558266 0.001610468 0.001701287 -0.0016727988 0.0018341457 0.0005246275 -0.001248511 -0.00057409564 0.00020195213 -0.00016415514 0.00046343383 0.0012377839 -0.0013415657 -0.0017748702 -0.0010672534 -0.001787105 0.0012391605 0.00020853819 -0.0008936097 0.0013500894 -0.00016065019 -0.0011588101 0.0010236981 0.00082660007 -0.0007910397 0.0012041942 0.0014093862 0.0019707617 0.0005998121 0.0006935058 0.00072857796 -0.00029653573 0.00073342316 0.0010941984 0.00012218412 0.00087559375 0.00077120215 0.0007029353 -0.00013594564 0.00031985278 0.0017508373 3.2039206e-05 0.0014009824 -0.0004358952 0.0018280937 0.0015416228 -0.00012536116 -0.0001423496 -0.00019329829 0.0012880492 0.00054461317 -0.0011702434 -0.0016138776 0.0007308456 0.0012499338 -0.00030784108 -0.00010381936 -0.0011072877 0.0017752136 0.0013907313 -0.00029724956 -0.0012847766 2.34517e-05 0.0006156958 -0.0012873525 0.00014148901 -0.00059280853 0.0006951057 0.0006895025 0.0016038547 0.0011644638 0.0007960273 0.0016926078 -0.0017677849 0.0008663238 0.0018112251 0.0018033931 -0.0017533357 -0.0011109702 0.00010405715 -0.00056628 -0.0015889382 0.0008811137 0.0016087795 0.0017263086 0.0011798432 -0.0011193986 0.0013905695 -0.0003640083 -0.0011302374 -0.0009282106 -0.0008109593 -0.0007481588 0.00047750905 0.00075711345 0.0019060934 -0.0010948249 0.00016787738 -0.0014194004 0.00014686892 0.00019274114 -0.00025352833 -6.732038e-05
五菱 0.0012631236 -6.837156e-05 -0.00023705018 0.00056715636 -0.0012514133 -0.001844588 0.0005791949 -0.0011368629 -0.000983337 0.0008266201 0.0013521041 -0.0018092878 -0.00028878046 0.0010750524 -0.0016174783 0.0012645086 0.0015720319 0.0011275418 -0.0016119647 -0.00037237356 -0.0016395807 0.00027085879 0.0010236038 -6.3552274e-05 -0.0006755168 -0.0016204541 -0.0004935586 -0.00013474836 0.0008018862 0.0005133042 0.00038002786 -0.001856213 0.00081509806 -0.0003379749 -0.00072185835 -0.00051592704 -0.0005863854 0.00044185063 0.0015037878 -0.0013704605 0.0012790328 0.0018505172 0.001585254 3.3340548e-05 -0.0018608358 -0.0019200748 0.000760414 0.00028091748 0.0012072443 0.0017945105 0.0015753717 -0.00091800897 -0.0006354765 -0.000472459 -5.3824468e-05 -0.0016366625 -0.00027812948 0.001192949 0.001412282 -7.287517e-05 2.7989956e-05 0.0008989431 0.0004247331 0.0015180086 -0.00063728634 0.001440829 -0.00033307064 0.0008393957 -0.0016142693 0.0006593109 -0.0014535313 0.0017772757 -0.0018005952 2.5442323e-06 0.0021455789 -0.0017245306 -0.0012606913 5.174452e-05 -0.0004887015 -0.0012824495 -0.0009552724 -0.0013161958 0.0019108023 -0.0011655552 0.00078102417 0.0011850806 -0.00071825495 -9.39248e-05 -0.0010751507 -0.0003080405 0.0012643603 -0.00076227775 -0.0012239296 -0.0015643436 0.00070167787 0.0020312804 -0.0015641745 -0.0002753386 -0.0007618192 0.0010314719 0.0016165524 0.0002712268 -0.0007086045 -0.0020834985 0.0004575506 -0.0006291781 -0.0004006743 0.00025020784 0.001479939 0.0017465464 0.0002852519 0.00082089455 0.0016584465 0.0009352991 -0.0011829232 0.000112075984 0.00033569784 0.0010090203 0.0010733983 0.0018973899 0.0015832158 -0.0013352712 0.0010219779 0.0018355959 -0.00095301744 0.0009641995 -0.0017170834 -0.0010126798 -0.0015993473 -0.0018784291 0.0015259827 0.00039305486 -0.0009383365 -0.00076892285 0.00051340874 -0.00042613377 0.0016527424 -0.0017538427 -0.000309822 0.00021890296 -0.0020826962 -6.101821e-05 -0.00047081313 0.0015522408 0.001045344 0.00093800185 -1.8756451e-06 -0.0011498912 0.0015104399 0.0011640465 -0.0012620323 0.00045365986 -0.001404136 0.0016672746 -3.960662e-05 -0.0005610086 0.00050780026 0.0007513661 0.00056079356 -0.0013616737 -0.00073348917 -0.0015280258 -0.0006463965 0.0018044963 -0.0011827762 -0.00028531413 0.0011532438 -0.0005694046 -0.0008139122 -0.0018234351 -0.0003705601 8.767682e-05 -0.00033832554 -0.0008449695 -0.0006812151 0.0011379546 -0.00097582553 -0.00047241853 0.001935221 0.0020937566 0.00052664126 -0.001991266 -0.0017018982 -0.00054199423 -0.0011914636 0.0014015088 -0.0009669777 -0.0018900634 0.0010629983 -0.001989536 -0.0008152136 -0.00054151035 -0.001904478 0.00020409012 0.0013990084 -0.001347846 -0.0010031495 -0.0017718718 0.0017346862 0.001758759 -0.0018286697 0.0011982884 -0.000805762 1.7099506e-05 0.0015840044 0.0005291971 -0.0018944686 -0.0008149289 0.00028854018 -0.0016857199 -0.0009080766 0.0015513211 0.0002959966 -7.584893e-05 3.3325457e-05 -7.949138e-05 -0.0015583378 -0.00031391383 -0.00019284856 0.00080805103 -0.00062819093 -0.0009987461 -0.002023417 -0.0015466687 0.0010698871 -0.00015169795 0.0011385399 -0.0017026692 -0.0012616703 0.0013823096 0.00016391509 -0.000119029 -0.0008571371 0.0005048393 -0.0014702716 0.00029132873 0.0017940213 0.0016308352 0.0009590866 0.0007234662 -0.0016729415 0.0017248482 -0.00084574573 0.0016940037 0.0009032821 -0.001684291 -0.0008874463 -0.00075988343 -0.0008478921 1.5342015e-05 0.0014197651 -0.0017154934 0.0007288977 -0.0004266569 0.0013044465 0.0014863345
奥迪 -0.0018420483 -0.00047092373 -0.0011070267 -0.0006746849 0.0012917056 -0.0010166612 0.000977628 0.000583688 -0.0008895261 -0.0013532292 -0.0016144823 0.0010916406 0.0012700453 -0.00037989352 0.0005368871 -0.0015096702 0.00084597274 0.00022776776 -0.0010156321 -0.001031884 -0.0009935292 0.0019102006 -0.0013981407 0.0019685512 3.7936406e-05 -0.0004438033 0.00091351534 -0.0016610944 6.771731e-05 -0.0015305879 -0.0016616508 -0.00013198356 -0.00080730015 0.0013140148 -0.00018023828 -0.0002120162 0.0011990813 0.00074053387 -0.001757241 -0.0014561483 0.001478637 -0.00065421185 -0.00094180263 -0.001241193 0.00047154937 -0.00013481922 0.00016780285 0.0010421986 0.001293822 0.0012299515 -0.0013191974 0.00075131643 -0.0017613061 0.0014331979 0.0008337141 -0.0016735354 -0.00016085358 -0.0017417313 -0.0017584194 0.00078217423 -0.00050406484 -0.0017333801 0.0011881413 0.0018102919 -0.0011005336 -0.0018103055 0.00060068234 0.00037816606 0.0006449626 0.00023565888 -0.0013376116 0.00059968466 -0.0009075406 -0.00114368 -4.698848e-05 0.0006008819 0.000879404 -0.0010607868 4.381468e-06 0.0009968908 0.00030491914 -0.00069819385 0.0016877003 -0.00082660886 -0.0018797667 0.0005327759 0.0019265965 0.0013923555 -0.00038707405 0.0013176288 -0.0017763553 2.537912e-05 -0.0008896512 -0.0008748134 0.00060694607 0.0006079644 -0.0011647394 0.0014010367 -0.0004676086 -0.0017557463 -0.0007217059 0.0010303848 0.001896455 -0.0013071153 -9.6037744e-05 -0.0019403015 0.0008672937 0.001747204 0.0018158146 -0.0010633667 -0.0013699359 -0.0011684693 0.0017917256 0.0009863756 0.0006404408 -0.00082732417 -0.00063468184 0.0018563044 6.0250113e-05 0.0010575318 -0.0017723745 0.001546298 0.0004705358 -0.00081262825 0.0018438412 -0.0007687224 -0.0010806413 -0.00123809 0.00052465947 -0.00033133727 0.0017305805 -0.0011100661 -0.0014827293 -0.0013321057 -0.0006302218 0.00038117965 -0.0008204762 0.0014134481 0.0018786738 -0.0009584448 -0.001762911 -0.00049071363 -0.0010364575 0.00184675 -0.0012107331 -0.0015943575 2.9831805e-05 -0.0010471038 0.0007428813 0.0013857173 0.000531423 -0.0016110591 -0.00026373062 0.00029726457 -0.00010585486 0.00016540472 -0.0011449817 -3.9485625e-05 0.0008847117 0.0016051664 0.0014119223 0.00026663666 -0.0003953326 0.00035789277 -0.0014640837 -0.0017843562 -0.0012046372 -0.00064303254 0.0019402589 -0.0002300564 -0.00055061246 0.0018293349 -0.0011414378 0.0019134359 0.0006239888 -0.00035530434 -0.0010294184 -0.0014462523 0.0014709728 0.0007310392 0.00039788746 0.0014756159 -0.0009504004 0.0013179552 -0.0014588045 -0.0015865036 0.0007973104 -2.1973843e-05 -0.0019290025 0.001580597 -0.00082038296 -0.0007493633 -0.00022823922 0.00022347766 -0.00013635853 -0.0009912238 -0.0010926034 0.00036541527 1.8370421e-05 -0.00014082775 -0.0010689842 4.3484666e-05 0.00073954073 0.0009290383 0.0018370921 -0.0015578133 -0.00044621396 0.0013750112 -0.0014515212 0.0006740605 0.000494861 -0.00067817856 0.0007240387 0.00090035883 -0.001990359 0.0016356163 -0.0018051368 0.0020133075 0.0011445703 -0.0014213824 -0.00044250986 -0.0009588422 -0.0004224773 -0.0014743689 -0.0005791269 -0.0018991765 -0.0010640721 -0.001354949 -0.0010777892 0.00025740807 -0.00015681563 0.001625349 0.0009459278 -0.0003052337 -0.0012462917 -0.00072605716 -0.000883469 -0.000913547 -0.0007207561 -0.00029242094 -0.00056692475 -0.0011145072 -0.0017746753 -0.0016744903 -0.00040898263 0.00062391046 0.0010817831 -0.00020675341 -0.001507857 -0.0008155609 -0.0005224705 -0.00032315517 0.0004493259 -0.001695121 0.0011282209 0.0010030159
性能 -0.001614891 -0.00040587582 0.0017965534 -0.00055683986 -0.00026222272 -0.0016040943 -0.0012192257 -0.00046785077 0.00025290216 0.0013210201 -0.00014403526 0.0014020939 0.0015355898 -4.7253297e-06 -0.0016390379 -0.0018471811 0.0015107146 -5.1742052e-05 0.0002456658 -0.00087652326 0.0009028392 -0.00046447953 -0.0012614323 -0.0006459984 -0.0016481556 0.0015774131 0.0015747182 0.0014166752 0.0019204237 0.00039832285 4.4534314e-05 0.0010303813 -0.0009930308 -0.0012717478 0.0010376698 -0.0012856893 -0.0018373234 -0.00012387433 -0.0014366764 0.0015615908 0.00023220123 0.001793861 -6.630334e-05 -0.0021432913 -0.0005673789 0.0015897906 0.0015280854 -0.00043565937 0.0006000048 0.0019189002 0.0012183132 -0.00016341583 0.00052191474 -0.001087936 -0.00190535 0.00074973283 0.0013640194 -0.001577917 0.00051534927 -0.0010655642 0.0015327904 0.00033607037 -0.0010066261 -0.00090400496 -0.0005744958 -0.0010968859 0.00067899504 -0.00032626642 -0.00056568405 -0.00030953958 -0.0014589905 0.00086922257 0.0010484025 -0.00164558 0.0015752792 -0.00034856665 -0.0013995939 -0.00025755182 -0.0010310705 0.0011636892 0.0018885005 0.0013445033 -0.00058634364 -0.00049035094 -0.0011298839 0.00075811904 -0.00023525073 0.001609084 0.00111863 6.56405e-05 0.00013383792 -0.0010544525 0.00087544264 -0.0010212078 -0.0016263985 -5.9154263e-05 0.0009782023 0.0008873564 -0.00089929777 -0.0014169737 0.0013883234 0.00048300665 0.0011023674 0.0012067914 0.0012031345 0.0013726811 0.001282331 0.0014606285 0.0003130915 0.0014211312 -0.00044098555 0.001585595 0.00012851741 -0.0005225755 -0.0012760344 -0.0015272471 -0.0016096175 0.0008002761 0.0008590455 0.001586864 0.0020158945 -0.0017566608 0.000830349 0.0005730656 0.0013667538 0.001958028 0.00012770802 -0.0019980199 -0.0021560995 -0.0023896021 0.0009184203 0.0010421353 -0.0005570859 -0.0009937857 -0.0009046203 -0.0012953572 -0.0011377762 6.53132e-05 0.0006626318 0.0013251455 -0.0014702375 -0.0013536474 5.270009e-05 -0.0005811828 -0.00030747108 -0.0006503024 -1.5579884e-05 -0.00061742374 0.0011296411 -0.0004611806 -0.0016847079 -0.00016246103 -0.0011744411 0.0008233703 0.0007030313 0.0020423823 -0.001719473 0.0006001966 0.0013037808 0.0014808511 -0.0010304564 -0.00010168123 -0.0010401162 -0.0013892615 -0.00018380684 0.0015770546 0.0017032283 0.0010976044 -0.00027215815 -0.0001482361 0.0017950992 -0.0010695182 0.0006081979 -0.0004982902 -0.00024377079 0.001792641 -0.0013441545 -0.0007166165 0.0016279825 -0.00042413964 0.00021686274 0.0008372433 0.0014699728 0.0015812144 0.0004458869 -0.0008071745 0.0016447285 -0.0009824481 0.0014956135 -0.00089301437 -1.4826578e-05 0.001496126 -0.00054370693 -0.00083728175 -0.0006893174 0.00013278051 0.0017319861 -1.8817242e-05 0.00047830207 -0.002076387 0.0006361187 -0.00031081235 -0.00048034312 0.0021179083 0.000698052 -0.001755198 -0.001119648 0.0018714124 -0.0014744839 0.0017634288 -0.0005389884 -0.0017494587 -0.0015529495 0.0017566568 -0.0022588419 0.0018307529 -0.0015934475 0.0003017051 0.00010664431 0.0009914842 0.0010928082 -0.0019380011 0.0011018689 -0.0017894872 0.0014690119 -0.001899055 0.00014576882 -0.00079205655 -0.00012349275 0.00015756367 -0.0012553757 0.0015162478 0.0016220747 0.0006031541 -0.00027832694 -0.001754884 -0.00075060484 0.00023996926 -0.00079261063 -0.0011300012 0.0010226723 -0.0013691847 0.00033104513 0.0014351464 0.0010684703 -0.00029266215 0.0018199582 0.00070017285 0.0015512847 0.0008143447 0.0018256207 -0.00086454727 0.001326665 0.0018036725 0.00043997008 0.0013219789
人 0.0014046794 -0.0001642132 0.0017561141 -0.00049809675 -0.0017507444 -0.0010453385 0.0010702641 -0.00014276158 0.0013344093 -0.0018903557 0.00097529846 0.0002472207 0.0014588212 0.0014361974 -0.0013994549 -0.00022565325 0.0011476943 -0.0004982119 -0.0021158291 -0.00033234982 -0.00038751247 0.0015119843 -0.0011613208 0.000624809 0.0016470015 0.00055799435 0.00011005739 0.0013479869 0.00076765346 0.001732377 0.0014196947 -0.0014358308 -0.00021425006 -0.0005126771 -0.0020499825 0.0016209438 -0.0013299172 -0.0006266431 0.0015992349 -0.0011122137 -0.0016372469 0.0018233637 0.00047092637 -0.0019088425 -0.0006268538 -0.0019184808 -0.0018996559 -0.0013720426 -0.0012241242 -0.0007965661 -0.00060650375 -6.599428e-05 0.001972745 -0.0018769418 0.0009098156 -0.001050433 0.0014341007 0.00017805569 -0.0016233751 0.00094729 0.0013293388 0.00023233003 0.00196093 -0.00012435934 0.00097269914 -0.0018658037 0.0008420195 0.00091239787 -0.0019302906 -0.00032019976 0.00029983706 9.720305e-05 0.0004944705 -0.0010250026 -0.0009392591 0.0011835524 -0.0005394003 0.00159071 -0.0011753597 -0.0018193997 0.0011718892 0.00083881384 -0.0005053705 -0.000100561476 -0.0016488726 -0.00051303214 0.0008110943 0.0008201277 -0.00080021366 3.8540005e-05 -0.00015515211 -0.0010504816 -0.00058834616 -0.0002055176 0.0005681659 -0.0012690776 0.0013972437 0.0018824195 0.0002820214 -0.0020034853 0.0004651268 0.0015217846 0.0014668996 -0.0012284722 0.00033267008 -0.0019846873 0.0011482291 -0.001830238 0.0013316112 -0.0003401097 0.0016403435 0.00010688169 -0.0006565953 0.0011760654 0.0012325478 0.001132422 -0.0001239074 -0.0018270254 0.0019299275 0.0018836901 -0.00052026485 -0.0017630358 -0.0016247623 0.0005243886 -0.0018569963 -0.0017266589 0.0015252597 -0.0004950364 -0.0003403208 0.0014040748 0.0010974074 -0.0009973875 -0.0019312532 -0.000623125 0.0016047981 0.0011748004 -0.0017137454 -9.1684466e-05 -0.0013050032 0.0007232807 0.0005294798 -0.0015087023 -7.5169883e-06 -0.00043204185 0.00210987 -0.00027663808 -0.00045560405 -0.00045921895 0.001023183 0.000729399 0.0011900016 -0.00037970807 -0.001341499 -0.0010156933 -0.0008758478 -0.00058782776 -0.0010327522 0.0014208322 0.0005100596 0.00054443965 0.0010057467 -0.00069049845 0.00058003457 -0.0004994309 0.0014905952 -0.0015200429 -0.0001847878 0.0016913684 -0.0012999057 -0.0004174383 0.0021857836 0.0018226943 0.0016320575 0.000925303 0.0015666934 -0.0013170593 0.0013367696 0.0013161845 -0.0013777728 0.0010400902 -0.00089262595 0.0005847553 -0.00076602673 0.0011973627 0.0019615085 0.0016817381 -0.0010021225 -0.0010684197 0.0019611712 -0.0013660808 -0.0014369617 -0.0016573606 0.00017099235 0.001240653 0.00072652363 0.0011445989 -0.0020621102 -0.001557598 0.00024550196 -0.0015993415 0.0015937219 0.0014700119 -0.0013195167 0.00090659136 0.0009830688 0.00096635974 -0.00022965133 0.0016207254 0.0002772003 0.00029468656 0.0006507512 0.0008803743 0.0010133248 0.0016514608 0.0002487659 0.000100230944 -0.00033257794 -0.00078498636 0.0018091209 1.18483385e-05 -0.0007994961 0.0004040088 -0.0014495775 -0.0020229719 -0.0010272101 0.0015253396 -0.0008587841 0.00040564142 -0.0014852775 -0.0012953079 0.0009982781 -2.6353151e-05 -0.0011231779 -0.00043849557 -0.00086637976 -0.00097220135 0.00070228975 -0.00041384104 -0.001534356 -0.0005043997 -0.0019056235 -0.0014971567 -0.0016699089 0.0007941914 0.0008008818 0.0018314621 -0.0007364734 0.0015961124 0.0013531188 -0.000419936 -0.0010851434 0.0017740026 -0.00078777486 -0.0012961383 1.7152122e-05 -0.0007729927
东莞 4.508678e-05 0.00040115486 -0.0009712249 -0.0016289698 -0.0016427513 0.0015597963 -0.0014579877 0.0012328849 -0.0009671072 -0.0013108666 0.00040163085 0.0007348232 -0.0014335808 -0.0012526573 -0.00017085749 -0.0019272363 -0.0019207272 0.001771275 -0.001017229 0.00038654046 -0.00024739394 0.0006855117 -0.00042497623 0.0012074327 -0.0015326454 0.0010211356 0.0014742977 0.0014787591 0.0014821319 0.0006777066 -0.0013903307 -0.0010629395 6.4410087e-06 -0.0017510598 0.0010663568 0.00032798672 -0.0004674762 0.0017816012 0.0017838638 -0.00032084665 0.0006352269 0.00045840422 0.0011074016 0.0013573408 0.00038187508 0.00011404362 0.0007668684 0.0015808699 0.00069750735 0.00075378787 0.0004810478 0.001866003 -0.00025591525 0.0015553046 0.0012308303 -0.0017855878 2.9079722e-05 0.0017117119 -0.0011919937 -0.0015219393 -0.00071396504 0.0005435712 0.00069182157 0.00014637802 0.00047898645 0.0011240477 -0.0010417161 -0.00083123613 -0.0018508236 -0.0012533255 0.0017363689 0.0007988578 0.0013805205 -0.0013030343 -0.0013349842 -0.0003392402 0.00026323562 0.00030314663 -0.0012234955 0.0013233273 0.0017012656 0.0015107491 0.0015555976 0.0012039524 -0.00028813322 0.0010563184 -0.0006313372 -0.0013181982 -0.0006359663 0.00076035265 -0.0003771877 -0.0014002838 0.00034625427 0.0014280684 -0.0014633734 0.0016260442 0.0017354998 -0.00073623995 -0.00073055923 -0.001194181 -0.0016723057 0.0019470797 -0.0012793691 -0.00019912985 -0.0010620424 -0.0017434064 4.7619553e-05 0.000601773 -0.00075254875 0.0018541786 -0.0012232809 -0.00086774846 0.00085456664 -0.00071253884 -6.339206e-06 -0.0006926269 -0.00011680451 0.001644445 0.00062404375 -0.0009613549 -0.001656304 -0.0011852024 -0.0008902224 0.00039449512 -0.0011405954 0.0004429191 -0.00041775245 0.00024059684 -0.001558508 -0.00039138214 0.0010586843 -3.8338385e-05 0.0004197233 -0.0016579131 -0.0019335519 -0.00022867783 0.0016918095 0.0012328859 -3.9862745e-05 -0.0016862474 0.0017357359 0.0002392551 0.0016028249 0.0019377746 -0.000642024 0.00024591322 -0.0014573426 0.00014476964 -0.0019694963 0.0002533298 0.0013994433 0.0017280347 -0.0012304421 0.00038338674 0.00010704828 0.0001107078 -0.0009795742 -0.00029476004 -0.00088877324 -0.0016156263 -0.0011806558 0.00033750816 0.0012350518 0.0008420405 -0.00043445366 0.0011702729 0.0015970664 -0.0003198005 -0.0018288853 -0.0016194378 0.0018990367 -0.0013953405 0.0013406944 0.00015514762 -0.00056864315 -4.300219e-05 0.0014378832 -0.0012940875 0.0012668974 -0.0011963588 0.00063429086 0.0015905965 0.0014932523 0.0017805065 -0.00082104455 -0.001869337 -0.0019081362 0.0010194442 -0.00037149768 -0.00092184823 0.00038347353 -0.00050874054 0.001194987 0.0013313381 -0.00095089 0.0010568122 -0.0009808625 -0.0010896621 0.0015494036 -0.0018763852 0.00026062632 -0.0012761073 0.0005050203 4.5383364e-05 -0.0003524047 -0.00045292452 0.0010013098 9.979674e-06 0.0010733595 0.00095650513 -0.0010666719 -0.00046549403 -0.00016851613 0.00061278715 -0.001283288 -0.0012252829 -0.0004247558 -0.0018183382 5.132813e-05 0.00071868254 0.0008431108 -0.00018785782 -0.0016718943 -0.0018760213 -0.0019659267 0.0018254044 0.0008324073 -0.0015462924 -0.0006068478 0.0014125605 -0.0017827343 -0.0011189637 0.0010782009 -0.0013929834 -3.4658096e-05 0.0013759597 -0.00023758256 -0.0012198418 0.0013789912 0.0016222366 -0.0008928735 -0.00096075033 0.0018431032 0.0015005601 -0.0012482426 -0.00090464967 -0.00010645079 9.011074e-05 0.00021551555 -0.00071863487 -0.00066136447 -0.0017887685 -0.0013226343 -0.000651512 0.00018474963 -0.00079103635
一般 0.00072499644 0.00043778704 -0.0016850757 -0.00091841235 -0.00013554007 -0.000893137 -0.0012214149 -0.0015630326 -0.0013921832 -0.0016626135 -0.0006649134 0.0001997048 6.793883e-05 0.00019523506 -0.0017770458 -0.0017866803 -0.0010736469 0.0009654261 -0.00027059732 -0.0008050573 0.0011507941 1.3328215e-05 -0.00021160893 -0.0014144317 0.0017734516 -0.0012905323 -0.0018604177 -0.00022884115 -0.0011513567 -6.943823e-05 0.0019057544 0.0012337968 0.000641889 -1.329094e-05 0.0013981675 -0.0012665585 0.0016752933 -0.0018285086 -0.0018699316 0.0005556123 -0.0016727212 0.0017370558 -0.00032671914 8.885102e-05 0.00015732493 -0.0019588892 0.0012385566 0.0016605438 0.0019665954 0.0018983019 -0.0015264897 -0.0005137222 -0.0016249573 0.00089576823 0.00023837964 0.0016743985 0.00036199726 -0.00074105995 0.00091064716 0.00013014705 0.00094182085 -0.0014389749 -0.0001494018 0.0016823144 -0.001365331 -0.00069195224 0.0010788628 -0.001672602 0.0017497068 0.0008438864 0.0017131733 -0.0014034656 -0.0018399393 -0.00017320948 -0.0016394234 0.0015455737 0.00094721786 -0.001975422 -0.00043631744 -0.00023786 0.0005582056 0.0007466412 -0.0019503396 0.0015434681 0.00093373656 -0.001850318 -0.0005735599 -0.001873596 -0.00020231608 -0.0018821391 -0.00036941466 0.001807711 -0.00030276473 -0.0011684141 -0.000587706 -4.514938e-05 -0.00028697817 -0.00058386597 0.00080005743 -0.0019129993 -0.00093156367 -0.0010309028 0.0011471218 0.001432903 0.00033518503 -0.00036415306 0.0009330198 -0.0001103823 0.0018407005 0.0003988291 -0.00040112986 0.00031085013 -0.00046585937 0.00071780884 0.0005643192 -0.0016165108 0.00034525982 0.00044480598 0.0011954694 -0.0007773801 -0.00075385795 0.001991967 -1.707243e-06 -0.0017027427 -0.0013939985 -0.0004442558 -0.00029393227 -0.0015573886 -0.00019340515 0.0010664708 0.0010813633 0.0011998756 -0.0011213142 0.0017484841 0.00073097047 0.0001930609 -8.519291e-05 6.427034e-05 0.0010637322 0.00070347 -0.0020289714 0.0010921259 0.0011463435 0.0006864877 -0.0011719811 0.0010111461 0.001007301 -0.0013264761 0.0002423579 0.0013345135 0.0018194951 0.0005323674 0.0013073583 0.0015220477 0.001714855 0.0019159107 -0.0010925881 -0.0015948189 -0.0012211961 0.0011009967 0.0005080579 -0.0010607864 -0.00069840666 0.0006837092 0.00018777284 0.001627906 0.00018390527 -2.811409e-05 -0.0007406352 0.0007923677 0.0020629214 0.0010667118 0.00074103824 -3.0374633e-05 0.00102744 0.0015954198 -0.0015811587 0.0012428005 -0.0014909785 0.0009076751 -0.00017224594 -0.0019322194 0.00060641987 -9.227923e-05 0.00045301666 0.0019763755 0.0008360709 0.0017587856 0.0008521494 -0.001809428 -0.0005054122 0.00011593211 3.3690063e-05 0.001010672 -0.0011392273 0.0005949092 -0.0015048959 0.0018845487 -0.0012347604 0.0016851617 -0.0017801756 0.0004544732 -6.317018e-05 0.001655884 0.0016848014 0.000528878 0.0011140892 -0.0018831184 -0.00015672886 -0.00075039075 -0.001349747 -0.0015238043 -0.0016463591 0.0013064002 0.0005423816 0.002221423 0.0004106126 -0.00092680985 0.0007952256 0.00081954926 0.0014801263 -0.001870191 0.0012462141 0.0011491232 0.0012638927 0.00051009236 0.0018671592 0.0011011452 0.001316474 0.0013144921 1.0407456e-05 3.9847808e-05 -0.00012030629 -0.0008581934 -0.0010081114 0.0017085889 -0.0007890101 -0.0012845559 0.0007000812 0.00015271954 0.0012637232 0.00021870903 0.000558046 -9.689973e-05 0.0007192321 0.00075153157 0.0018821611 -0.0017648723 -0.0017439376 0.0010572211 -0.0006115247 -0.00063692813 -0.00021280198 0.0005593136 0.00016518046 0.00034642828
家用车 0.0017236571 0.0012056613 -0.0005285937 0.00060457067 0.0014034885 -0.0005770997 0.0006327952 -0.00080924004 -0.0014452592 0.001952161 -0.00082744565 0.0015151215 0.0005782469 0.00098422 -0.0017734607 -0.0014616231 -0.0006701859 0.0010666458 0.0009949671 -0.00091887556 0.001227054 0.0013900864 2.0799223e-05 0.001359675 -0.0012909318 -0.0010020417 0.00028784273 0.000618039 0.0014002876 0.00011819495 -1.1736248e-05 0.0015959258 -0.0005061047 -2.8535069e-05 -0.00017354013 -0.0005391807 0.00022191614 -0.0008256776 -0.00082599843 6.255268e-05 0.00050750555 -0.0016592552 -0.00087633997 -0.0006145009 -0.0010231737 -0.0012424237 0.0011199783 0.0011567204 -0.0008977732 -0.00037359275 -0.0017027303 -1.4709367e-05 -0.0015656913 -0.00031828863 0.0018228521 2.8896442e-05 0.0017666697 0.0007086358 -0.00064098253 -0.00012592747 0.0016489835 0.0013187731 -0.001376831 -0.0007439542 0.00078843965 -0.0014069708 0.0018650402 -0.0015653911 -0.001176141 0.0013159132 0.0018721538 0.0007726098 -0.000853476 -0.0010507975 -7.6296325e-05 0.0004997501 0.0017733466 0.001910141 -0.0012035609 0.0007272787 0.0011861549 0.00024203374 0.00083072326 -0.00054466136 0.00018497552 0.0010737431 0.0009616848 0.0019237195 -0.0012228339 0.0012368636 -0.0005079872 -0.0015912175 -0.00013447471 0.00047718815 0.0020200668 -0.0016127407 0.0016433103 0.0003910068 0.001575333 0.00045869648 0.0004078217 -0.0013919683 -0.0009700231 0.0017338467 0.0007902662 0.0006331172 -0.0014034827 -0.0006054559 0.00063062913 -0.0006863003 0.0015357033 0.0010480732 0.0015902282 0.00042539352 -0.0006610964 -0.0001797649 0.00082528574 -0.0017421979 0.0009076234 -0.000936443 -0.0008556814 0.0004640453 0.00096456084 -0.0013439956 0.00042846805 -5.4888602e-05 0.0011302248 -0.0009230525 -0.00088311674 -0.0020017962 -0.0012353226 0.0016422367 -0.0005512731 0.0012587336 -0.00013100335 -0.00028447798 0.00077365444 -0.0017866241 -0.00018923782 -0.0009938999 -0.00027813084 0.00033435036 -0.0010851885 -0.0002222065 -0.0016496875 0.001140695 -0.0008860155 0.0015780033 -0.0005123596 0.001317922 0.00025480601 0.0010780693 -0.0018553014 0.001226921 0.0017797574 -0.0008423353 -0.0011296882 0.0013024786 0.0003038884 -0.0003539009 -0.00034542425 -0.0012526085 0.00041413418 0.00013364371 0.0014750833 0.00025731142 0.0006436582 -0.00030192808 -0.0015423687 0.00012926362 0.0015486556 -9.679301e-05 0.0007288241 -0.00094653456 -0.0014236745 0.0013608816 -5.860867e-05 -0.0018725047 -5.7304824e-05 0.0010184497 0.0012693834 0.0001163036 -0.00010446041 0.0017792837 0.001208933 -0.0015400974 -0.0011708207 -0.00042814578 0.001490977 0.0008474704 0.00090336305 0.0017891668 0.0005897039 -0.0001486111 0.000391379 -0.00023634697 0.0013093605 0.00075599994 0.00051588984 -0.00067979196 -0.0015561641 -9.600061e-05 0.000957138 -0.0014528477 -0.0018079245 0.00034560237 -0.00023948905 -0.001486998 0.00074066885 0.0013720985 -0.0010538689 0.0016877282 0.0010656869 -0.00017661782 0.0010495133 -0.00088698644 0.0014360647 0.0017059457 0.0013312208 0.0014848647 0.0017913526 0.0015531889 0.0018884875 -0.0007750613 0.0012504427 0.0012968524 0.0014806228 4.8323287e-05 0.00012544928 4.2926786e-05 -7.918642e-06 0.0016103806 -0.00039777058 0.0005267042 0.0006729904 0.0016437065 -0.00022747021 0.00077073864 -0.00044242435 -0.00028621164 -0.00063997426 0.0014909594 -0.0005535734 0.00050227134 0.0010792287 0.0009815297 0.0005358926 -0.00039619012 -0.0016051742 -7.10657e-05 0.00036268533 0.0005713622 -0.0008815706 -0.00043942517 0.0007917011 -0.0009267533
